// Neural Network File Format by Kyle Julian, Stanford 2016
18,1,1,410,
1,2,101,101,101,101,2,2,11,11,11,20,20,410,410,20,20,10,1,
0,
-3.4028235e+38,
3.4028235e+38,
0.0,0.0,
1.0,1.0,
0.000001,
1.000000,
-0.000004,
0.000000,
-0.013514,0.000000,
0.531237,0.000000,
-0.823045,0.000000,
-0.735939,0.000000,
-0.385154,0.000000,
0.285938,0.000000,
-0.019813,0.000000,
0.788956,0.000000,
-0.088744,0.000000,
0.275766,0.000000,
-0.302213,0.000000,
-0.180285,0.000000,
-0.955348,0.000000,
-0.669568,0.000000,
-0.395028,0.000000,
0.037044,0.000000,
0.422805,0.000000,
0.610729,0.000000,
-0.669936,0.000000,
-0.435781,0.000000,
0.395005,0.000000,
0.857580,0.000000,
-0.205800,0.000000,
0.776248,0.000000,
-0.161183,0.000000,
0.105814,0.000000,
0.937777,0.000000,
-0.927670,0.000000,
-0.629538,0.000000,
-0.253165,0.000000,
-0.389800,0.000000,
0.895307,0.000000,
-0.648180,0.000000,
-0.460333,0.000000,
-0.694616,0.000000,
-0.936561,0.000000,
-0.552747,0.000000,
0.892330,0.000000,
0.476775,0.000000,
0.515550,0.000000,
0.071033,0.000000,
-0.527703,0.000000,
0.184097,0.000000,
-0.933695,0.000000,
-0.722566,0.000000,
-0.515530,0.000000,
0.657414,0.000000,
0.609727,0.000000,
-0.443495,0.000000,
-0.036082,0.000000,
0.639561,0.000000,
1.033347,0.000000,
0.423885,0.000000,
0.149664,0.000000,
0.685596,0.000000,
-0.588802,0.000000,
0.211899,0.000000,
-0.775306,0.000000,
-0.693086,0.000000,
-0.516584,0.000000,
0.480285,0.000000,
0.442838,0.000000,
-0.592353,0.000000,
0.302107,0.000000,
0.585139,0.000000,
-0.099088,0.000000,
0.038182,0.000000,
0.251583,0.000000,
0.620377,0.000000,
0.982305,0.000000,
-0.746305,0.000000,
-0.366470,0.000000,
0.407828,0.000000,
0.858635,0.000000,
0.870207,0.000000,
0.911463,0.000000,
0.202678,0.000000,
-0.869583,0.000000,
0.111700,0.000000,
-0.625605,0.000000,
-0.960667,0.000000,
0.916556,0.000000,
0.778704,0.000000,
-0.966749,0.000000,
0.169175,0.000000,
-0.178180,0.000000,
-0.164561,0.000000,
-0.457757,0.000000,
0.384556,0.000000,
-0.609001,0.000000,
0.394103,0.000000,
0.515465,0.000000,
0.746745,0.000000,
0.393129,0.000000,
-0.989735,0.000000,
-0.648697,0.000000,
0.499315,0.000000,
0.209878,0.000000,
-0.780084,0.000000,
-0.575819,0.000000,
0.000000,1.000000,
0.919963,
0.679492,
-0.436025,
-0.251685,
-0.952598,
-0.020180,
-0.753059,
-0.775354,
-0.055100,
0.134885,
-0.409530,
0.591349,
-0.608539,
0.902451,
0.676254,
-0.843283,
-0.223604,
0.022519,
0.175193,
0.253662,
0.390735,
0.057521,
-0.487929,
0.467224,
-0.959249,
-0.592707,
-0.224825,
-0.487113,
-0.349833,
-0.819622,
-0.212715,
0.207978,
-0.651466,
-0.051319,
0.713324,
-0.102800,
0.098563,
-0.073512,
0.205305,
0.631943,
0.956213,
0.624083,
0.933124,
-0.072322,
-0.898322,
-0.474077,
0.679216,
-0.003093,
-0.497046,
-0.766312,
-0.935852,
-0.803962,
-0.176531,
0.548050,
0.525856,
-0.964432,
0.614337,
-0.782509,
-0.211410,
-0.405473,
-0.162473,
-0.154956,
-0.897350,
-0.863438,
-0.125240,
0.049595,
-0.454275,
0.369904,
-0.900058,
-0.065975,
0.891531,
-0.407892,
0.887528,
0.370818,
-0.902461,
0.632799,
-0.114361,
-0.446407,
0.790066,
-0.808095,
0.128190,
-0.185992,
0.699911,
0.319566,
0.457383,
0.352300,
-0.240475,
-0.210305,
-0.824081,
0.558396,
0.793431,
0.664665,
-0.674548,
0.025214,
-0.704934,
-0.550484,
-0.582705,
0.339775,
-0.595913,
-0.021817,
0.000000,
0.004207,0.064462,-0.075592,-0.068651,-0.058066,0.069993,-0.035946,0.084349,0.036161,0.012663,-0.000744,-0.019768,0.012547,-0.022834,-0.000703,0.012759,-0.078221,-0.052413,0.080749,-0.081155,-0.007181,0.098924,0.036124,0.002831,-0.086661,0.049538,-0.071228,-0.028386,-0.033552,-0.014809,0.001094,0.082481,0.012484,0.089569,0.061171,-0.063221,0.044850,-0.070690,-0.042383,0.029412,0.033019,0.075023,-0.032192,0.000160,0.051482,-0.096709,0.072298,-0.082692,0.001378,-0.017002,-0.052667,0.013217,0.082692,-0.029232,-0.059369,-0.036984,-0.099115,0.045139,-0.048026,-0.066734,-0.057610,0.057496,0.052957,0.076752,0.036272,-0.033396,-0.027945,0.029543,0.082203,0.027189,-0.047315,-0.047008,-0.094547,0.021605,-0.056118,-0.089158,0.087688,-0.064941,-0.011376,0.028649,0.003186,-0.067288,-0.080832,0.079708,0.016284,0.082962,-0.033524,0.029456,-0.022868,-0.004447,-0.060904,0.033820,0.031617,-0.002063,-0.022490,-0.061643,0.069154,-0.074442,0.040967,-0.033625,0.000000,
-0.054378,0.011803,-0.051946,0.023040,0.019638,-0.080464,0.016650,0.035273,0.039583,-0.018759,-0.081979,-0.021513,0.034731,-0.042492,0.031913,0.066596,-0.058545,-0.005214,0.041350,0.013830,0.002192,0.006290,-0.078615,0.001687,0.069247,0.090111,0.052540,0.013400,0.046701,-0.048648,-0.082869,-0.092177,0.099761,0.063479,-0.074849,0.039124,0.075517,0.093752,0.081264,0.071317,-0.029059,-0.041053,0.075964,0.056038,-0.060178,0.089902,0.042154,0.048313,-0.062678,0.028690,-0.035056,0.072158,-0.024299,0.032790,0.011593,0.042547,-0.040127,0.048757,-0.069847,0.022586,-0.073930,-0.104928,-0.080306,0.078947,0.047873,0.093822,0.080112,-0.095462,-0.068243,-0.022369,-0.070834,0.069440,-0.081752,-0.054967,-0.096609,-0.062944,0.075884,0.081876,0.065447,0.077213,0.088919,-0.031837,0.037834,0.089093,0.026931,0.093896,0.051866,0.062165,-0.034999,0.042602,0.005340,-0.030042,-0.063449,-0.062310,-0.076948,0.067133,0.071093,-0.017534,-0.057869,0.077291,0.000000,
0.063949,0.007433,-0.047214,0.091905,0.040894,-0.075915,0.095708,0.075937,-0.036449,0.056215,-0.056819,-0.015671,0.084910,0.004132,-0.070722,-0.033423,-0.027145,-0.019293,0.009570,0.092483,0.005354,-0.061744,0.005125,0.047949,0.049604,-0.091394,-0.017894,-0.074314,-0.042669,0.036029,-0.071013,0.037173,0.084878,0.006559,-0.066649,-0.035828,0.021836,-0.076232,0.049681,-0.090787,-0.096129,-0.097166,-0.020286,0.067243,-0.094648,0.083119,-0.040002,0.029288,0.004560,-0.090172,0.082933,0.053844,0.099400,0.050521,-0.066007,0.083458,0.005374,0.047422,-0.080183,-0.028763,-0.098188,-0.038949,0.021573,-0.078516,0.031876,0.053681,0.013931,-0.066908,-0.077532,-0.030852,0.043896,0.098640,0.057503,-0.011261,0.035062,-0.098106,-0.085410,0.046661,-0.056642,0.048110,-0.070593,-0.049531,-0.082369,0.052184,-0.010190,0.076960,0.061887,0.055334,0.003216,-0.030918,-0.021743,0.013290,0.049571,-0.070059,0.083928,-0.010873,-0.083795,-0.054106,0.088482,0.091453,0.000000,
-0.092628,0.070530,0.050116,0.059192,0.084653,-0.053895,0.031578,0.040923,-0.029549,0.033465,-0.028771,0.061826,-0.027745,-0.037280,0.025175,0.035469,-0.048857,0.008840,0.057954,-0.009950,0.030433,-0.024119,0.035050,-0.072439,-0.058803,-0.050759,0.091901,-0.026908,-0.000273,-0.048450,0.099829,0.097667,-0.075419,-0.081067,-0.075799,-0.000482,-0.025490,-0.065455,-0.035867,0.018893,-0.052249,0.022158,-0.022932,-0.048456,0.013739,0.082226,-0.067608,0.004643,-0.036877,0.098131,-0.094876,-0.095866,0.098538,-0.063269,0.019172,-0.008631,-0.021066,-0.022335,0.063544,0.004780,-0.097361,-0.059036,-0.034090,0.050322,-0.064713,0.094292,-0.022273,-0.017956,0.078356,0.050261,0.084812,0.057844,-0.030335,-0.066347,-0.007440,0.082764,-0.033562,-0.092737,0.040993,0.097347,-0.028468,-0.082802,-0.090706,0.025060,-0.007572,-0.050499,0.020213,0.037976,0.079532,0.077638,-0.014968,-0.088177,-0.090362,0.093369,0.044206,0.043591,-0.086522,0.092602,0.094734,0.090286,0.000000,
-0.084359,-0.037732,-0.068776,0.094697,-0.042968,-0.045655,0.052391,-0.046259,-0.049252,-0.008747,-0.009612,-0.077898,0.083367,-0.044112,0.035471,0.086978,0.050432,0.014158,0.085086,0.013443,-0.046266,0.094600,0.023668,-0.097568,-0.028469,-0.068117,0.087675,-0.016515,-0.091152,-0.006286,0.062801,0.025980,0.031620,0.009287,0.037282,-0.024365,-0.039780,-0.093471,-0.075334,0.043340,-0.059211,0.014347,0.031919,0.007080,-0.064835,0.095633,-0.058150,0.082250,-0.079551,-0.024055,0.054397,-0.040858,0.084004,-0.068816,-0.083977,-0.045092,0.016165,0.092076,-0.047740,0.035763,-0.025071,-0.021686,0.073530,-0.077499,0.010621,0.094041,-0.013741,0.077644,-0.030796,0.080496,-0.096733,-0.014412,-0.017565,0.032409,0.039233,0.076782,-0.014899,-0.003966,0.068481,-0.027057,0.087663,-0.066581,-0.010821,-0.005371,0.044621,0.068368,-0.015850,-0.082848,0.049549,0.029913,0.040170,-0.061687,0.064360,0.094715,0.008677,-0.093405,0.070199,-0.074145,0.022987,0.014532,0.000000,
-0.045582,0.042818,-0.089443,0.022776,-0.063395,0.010252,0.012863,0.097670,-0.047712,0.075719,-0.012703,-0.050403,-0.087080,-0.103426,0.089572,-0.024940,0.033546,0.045543,0.023290,0.057184,0.089903,-0.055476,-0.016022,-0.047835,-0.057135,0.023721,0.117971,-0.080110,0.060520,-0.051847,-0.019477,0.094865,-0.022617,0.009106,-0.087843,0.085124,-0.093276,-0.051100,0.042271,-0.063213,-0.077123,-0.007503,0.082628,-0.028298,0.047067,0.085932,0.075082,-0.032022,-0.010962,-0.031468,-0.080412,0.026431,0.101986,0.088358,0.019394,0.022712,-0.038727,0.075484,-0.041611,-0.069465,0.041438,0.087432,-0.090159,0.090397,0.060622,-0.083818,-0.021541,0.093657,-0.076723,-0.007808,0.017855,-0.087609,0.060428,0.065214,0.062021,-0.053023,0.124020,-0.059276,0.102620,-0.095969,-0.157816,0.085016,0.019796,-0.033772,-0.050380,-0.047220,-0.029239,-0.097416,0.005197,-0.003885,0.005824,0.039909,0.113111,0.044128,-0.036607,-0.041155,-0.063981,-0.062386,-0.016105,-0.017687,0.000000,
0.037109,-0.050079,0.079720,-0.070168,0.000284,0.082681,0.099439,-0.064421,0.017813,0.004470,-0.046885,-0.041988,0.027085,-0.076987,0.009014,0.043272,-0.046171,0.075801,-0.006581,0.041971,0.091679,-0.037842,0.054341,-0.035925,-0.014607,-0.016947,-0.007804,-0.037777,0.023439,0.003768,0.063389,-0.027547,0.010028,-0.037199,-0.091212,0.040467,0.012796,-0.047308,-0.041137,0.018800,-0.025471,0.057890,-0.001701,0.037774,0.043570,-0.024537,0.035920,0.066513,0.004602,0.019569,0.003634,0.063605,-0.049135,-0.060538,0.036252,-0.087031,-0.005770,-0.045989,0.066003,-0.093104,0.053576,0.091853,0.020234,-0.006663,0.091220,-0.042735,-0.008013,-0.051128,-0.013804,0.014493,0.005835,-0.018887,-0.107335,-0.002200,-0.002962,0.007710,0.070005,0.097201,-0.066702,-0.006235,-0.040067,-0.099357,-0.080097,0.093856,0.050961,0.046235,0.055574,-0.079448,0.010502,0.086042,-0.063165,0.081622,0.021353,0.063094,-0.042839,0.046102,-0.088649,-0.013715,0.033355,0.029989,0.000000,
0.095511,0.107256,0.090976,0.067139,0.070306,-0.013707,-0.077605,-0.012777,-0.011226,-0.047504,0.051117,0.048792,0.016135,0.040184,0.103086,0.036423,-0.086240,-0.071830,0.114873,0.040170,0.057673,-0.098281,-0.092287,0.068625,0.063965,-0.090471,0.038083,-0.078084,0.075731,0.031379,0.098879,-0.094115,-0.096268,0.067610,0.106795,0.061268,0.178469,-0.084928,0.078836,-0.085145,0.034066,-0.048813,-0.028573,0.017707,-0.039318,-0.015822,-0.085949,-0.094701,0.038736,-0.042328,-0.060839,-0.023745,-0.080147,-0.068966,0.067723,0.050824,0.024056,-0.054626,0.033270,0.004493,-0.070760,0.022853,0.091054,-0.098361,-0.099174,0.053340,0.075302,-0.051249,0.022014,0.069340,0.048094,0.021641,0.109928,0.071468,-0.056243,0.016380,0.052490,0.088191,-0.087998,0.054151,0.078415,-0.098123,0.030558,-0.000024,0.024251,-0.050201,-0.075253,-0.008485,-0.033593,0.077690,0.018826,0.087189,0.047588,-0.030529,0.067733,0.005465,0.018769,-0.022451,0.000359,-0.019227,0.000000,
-0.016068,-0.085536,-0.000615,-0.083004,-0.021513,0.050565,-0.069535,-0.067405,-0.024418,-0.034955,0.016929,0.009022,0.050710,-0.076478,-0.014646,0.055929,0.086497,-0.014783,-0.052907,0.021091,0.049397,-0.069964,-0.058029,0.036664,-0.007007,-0.094450,-0.064101,0.040553,-0.033918,0.069023,0.079054,0.007027,-0.007907,-0.031743,-0.012663,0.018202,-0.066346,-0.031269,-0.090715,0.053823,-0.071251,0.083762,-0.033340,-0.057288,0.048045,0.014908,0.061696,0.034267,-0.096334,0.063249,-0.018831,-0.044197,0.063505,0.065370,-0.095434,-0.009042,0.074559,0.038729,0.084247,-0.034270,-0.061118,0.085991,0.041682,0.095998,-0.048185,-0.054614,-0.011721,-0.101708,0.039198,0.066354,0.016405,-0.009881,0.042025,-0.071008,0.097824,-0.106977,-0.095795,-0.023630,0.074122,0.010013,0.048363,-0.080067,0.028924,-0.016090,0.032527,0.063038,0.043468,-0.008506,-0.006160,-0.070324,-0.043725,0.057434,-0.040100,0.054610,-0.039653,-0.023290,0.002128,-0.099323,-0.000998,-0.010080,0.000000,
-0.008984,-0.019990,0.078838,0.073799,-0.067776,0.046453,-0.078438,-0.085132,0.030568,0.001470,-0.046651,-0.096450,-0.038714,0.033400,-0.092560,-0.097147,0.012687,-0.072040,-0.087608,-0.038529,-0.016100,-0.090871,-0.066773,0.006557,-0.094297,-0.014055,-0.064570,-0.069324,0.039303,-0.076969,-0.075783,0.057028,0.018697,0.091071,-0.026730,-0.048302,-0.009255,0.000506,0.076264,-0.099608,-0.007120,0.044235,-0.055068,-0.050814,0.048327,-0.095819,0.023696,-0.077419,0.049706,-0.085504,0.061480,-0.094663,-0.084057,0.001474,0.078799,-0.085640,-0.044606,0.087828,-0.016770,0.041428,-0.096200,-0.031448,-0.050783,0.084306,0.041504,-0.072968,0.016123,-0.001149,-0.041087,-0.057108,-0.033184,0.078823,-0.071685,-0.071234,-0.030852,0.001740,0.027221,0.003001,-0.024073,-0.060635,-0.017943,-0.040255,0.080793,-0.097341,-0.063786,-0.081359,-0.018276,0.077927,0.087654,-0.087056,-0.004333,0.058697,0.044080,0.081910,-0.002774,-0.067189,0.066153,-0.034291,0.051779,-0.024644,0.000000,
0.030209,0.077486,0.092986,-0.091007,-0.066148,-0.054042,-0.063770,0.080797,-0.008832,-0.078911,-0.044499,-0.067444,0.040799,-0.098976,-0.105244,-0.098576,0.029361,0.036785,-0.062108,0.017239,0.061316,0.001848,-0.021158,-0.005149,-0.010723,0.050350,-0.080828,0.050710,0.056362,-0.060587,0.081656,0.085587,-0.039423,-0.028009,0.038690,-0.078342,0.039546,0.010539,0.050447,-0.099338,-0.095423,0.033308,0.023665,-0.093077,-0.055766,-0.091498,-0.084137,-0.057861,0.082754,-0.019905,0.057435,0.080589,0.032315,-0.101921,0.037820,0.038143,0.065104,-0.098643,0.061502,0.081854,-0.106164,-0.002901,0.085367,-0.072731,0.019832,0.044188,0.026209,0.086998,0.081878,0.073057,-0.023979,0.083871,-0.105600,-0.066547,-0.021388,-0.042239,0.079122,0.047167,0.052034,0.068021,-0.074700,-0.024449,0.002110,0.026009,0.039036,-0.051933,-0.030153,0.083674,-0.026838,-0.079739,0.055379,0.055265,-0.046139,-0.032623,-0.073788,-0.083509,0.037605,-0.055185,0.079610,-0.080071,0.000000,
-0.013823,0.002159,0.051395,0.080933,0.067720,0.044020,-0.045899,-0.071415,-0.089461,0.004960,0.096988,-0.018994,-0.004210,-0.072669,0.030701,0.063398,-0.098592,-0.070412,0.074071,0.023676,-0.006235,0.017876,-0.015204,-0.069896,-0.093443,0.065771,-0.011894,-0.037139,-0.025812,-0.054542,-0.029618,-0.085841,0.074834,0.040834,-0.050432,-0.034131,0.044864,-0.037031,0.026369,0.027534,-0.062949,0.025050,0.006118,0.087338,-0.036182,-0.025707,0.086160,-0.081660,0.007225,0.096350,-0.044837,0.095868,0.088734,0.093034,-0.009542,0.090463,-0.043572,-0.034231,0.037823,0.021125,0.055128,0.095032,-0.062599,0.053073,0.033456,0.052757,0.047417,-0.037407,-0.079036,0.080038,-0.057024,0.063933,-0.095264,-0.017300,0.001060,0.017302,0.008083,0.031511,-0.011134,0.024490,0.098958,-0.064705,-0.005460,-0.038172,0.087743,0.085604,-0.002727,-0.034663,-0.061787,0.071554,-0.006886,0.094181,0.057026,0.087530,0.079092,-0.064984,0.029270,-0.041466,0.050175,-0.008991,0.000000,
0.003388,-0.067434,-0.089373,0.037657,0.023239,0.027718,0.067919,-0.012983,0.035498,-0.048293,0.020720,-0.032075,0.070033,0.073699,0.075669,0.004498,0.083754,-0.084772,-0.099565,-0.014210,0.003112,-0.063889,-0.044261,-0.041056,-0.099076,0.009537,0.090239,0.040586,-0.047513,-0.091827,-0.080678,0.012611,0.068791,-0.040497,-0.072265,-0.053346,-0.061794,-0.075812,-0.080744,0.099999,-0.052225,-0.032956,-0.030006,-0.087851,-0.017629,0.030612,-0.038051,0.012616,-0.000478,-0.099550,0.072672,0.108213,0.092510,-0.035355,0.056524,-0.093692,-0.026763,-0.020338,-0.035315,0.042000,-0.022128,0.012404,-0.028875,-0.093908,0.005531,-0.148206,0.058310,0.053968,0.093679,-0.014816,-0.010843,0.019589,0.098955,0.099355,-0.051754,-0.080224,-0.067003,-0.048156,0.080177,0.033585,0.051916,0.095736,0.004810,-0.099520,0.096488,0.070963,0.043294,-0.054626,0.078778,-0.012666,0.065431,0.043195,0.110900,-0.073622,-0.055448,0.059977,-0.020834,-0.086475,0.090940,-0.002163,0.000000,
0.074663,-0.084167,0.034429,-0.037667,-0.042082,-0.026861,-0.037015,0.048843,-0.019000,0.069817,0.022818,-0.021456,-0.057760,-0.097571,-0.035176,-0.092603,-0.024530,-0.004371,-0.006444,-0.049122,0.063401,0.050313,-0.024638,-0.045516,0.062869,0.087002,-0.097569,-0.021606,-0.009280,-0.036206,0.085371,-0.020776,0.084785,0.000494,-0.016842,-0.058330,-0.033251,0.026218,0.038229,-0.009563,0.089279,-0.075216,0.032336,0.090068,-0.017388,0.079391,-0.004357,-0.080889,-0.054862,0.037222,-0.043275,0.018048,0.092422,0.027963,-0.015364,0.024995,-0.063619,-0.084025,-0.075170,-0.083910,0.014518,0.013475,-0.042497,-0.097815,0.048166,-0.056741,-0.016695,-0.089853,-0.056416,0.035711,-0.099175,-0.057024,0.068968,-0.057290,-0.041616,-0.034083,0.036745,-0.065597,0.004021,0.040840,-0.007259,0.012077,-0.082290,0.045210,0.031368,-0.018547,-0.082687,0.039998,0.065254,-0.017491,0.041129,0.031061,-0.045812,-0.012947,0.099544,0.000472,-0.079611,-0.013298,0.049749,-0.032642,0.000000,
-0.041052,0.101606,0.052901,-0.016989,0.005109,0.025410,0.023217,0.027985,-0.060513,0.042266,0.002615,0.013338,-0.038109,0.024414,-0.078929,0.029892,0.095941,0.021456,-0.101359,-0.017465,0.020127,-0.054108,-0.070730,0.115750,0.074782,0.055420,0.108192,0.038496,0.056279,0.066232,-0.023361,0.015717,0.071305,-0.000036,-0.071564,-0.077540,0.012481,0.119173,0.102874,0.035575,0.081364,-0.094663,-0.058385,-0.096223,0.080569,-0.000905,-0.026038,0.068157,-0.037433,-0.064134,0.038570,0.057868,-0.030565,-0.051391,0.068644,0.076038,0.023137,-0.050229,0.048287,0.017441,-0.047081,-0.023965,0.021888,0.061877,0.006849,0.039379,-0.061931,0.113512,0.071254,0.054707,0.040502,0.034816,-0.042713,0.024600,0.026666,-0.000109,0.136260,-0.038564,-0.076319,-0.047608,-0.125845,0.120956,-0.024075,-0.093838,0.004898,-0.062851,-0.052237,0.050981,-0.075080,0.037417,0.089506,0.018522,0.072256,-0.024640,0.077982,0.097144,0.023764,0.108940,-0.099317,-0.010980,0.000000,
0.021247,-0.076353,0.048663,-0.038111,-0.036168,-0.048523,0.040882,-0.052785,-0.021221,0.060887,0.075335,0.018676,-0.037304,-0.056487,0.046637,0.018554,0.122903,0.064323,0.029973,-0.113038,0.092027,-0.019586,-0.026768,0.016097,-0.018753,0.019781,0.123437,-0.059749,0.030899,-0.080370,0.015702,0.104104,0.067428,0.085636,0.035471,-0.008273,-0.051822,-0.010550,0.102719,0.060417,-0.070745,0.071719,0.002613,-0.004445,-0.027369,-0.026384,0.016614,-0.019868,-0.093021,-0.051511,-0.019900,0.113758,0.111097,-0.054885,0.009889,-0.028862,-0.047795,-0.017585,-0.034698,0.055895,-0.013151,0.052757,-0.056431,-0.031211,0.113192,-0.100053,-0.006013,0.104552,0.034227,-0.020158,-0.076146,-0.035067,-0.024102,0.061618,-0.022232,0.098867,-0.019180,-0.031270,0.039675,0.079865,0.029481,0.049739,0.016817,-0.088774,0.063151,-0.064688,-0.026285,-0.083580,-0.096134,0.033358,0.014284,0.089872,0.109671,0.077999,0.040019,-0.025952,0.053111,0.057042,0.034618,-0.002887,0.000000,
0.010875,0.006971,-0.072573,0.023214,-0.073515,0.084401,-0.059581,-0.006412,-0.047425,0.093478,-0.070422,0.041992,0.050153,0.053794,0.011117,0.054515,0.121496,0.049717,-0.016107,-0.111291,-0.018892,0.038502,0.012116,-0.022112,-0.099134,-0.026006,0.077882,0.086107,-0.090303,0.047743,-0.094887,-0.073200,-0.062624,-0.013208,0.006427,-0.076051,0.002058,0.126707,0.022762,0.087655,-0.048152,-0.057925,-0.014055,0.010927,-0.069759,-0.080074,0.047390,0.061983,0.097827,-0.040771,0.035314,0.000562,0.091321,-0.005651,0.084863,0.055557,0.083890,0.051390,0.003757,0.086177,-0.017373,0.136085,0.097719,0.095527,-0.007052,-0.100690,0.006327,0.035776,0.050163,0.076421,0.065737,-0.025054,-0.030421,0.050494,0.027867,-0.046484,0.050847,-0.075925,-0.031352,-0.039247,0.023131,-0.050913,-0.049847,-0.142096,0.026842,-0.088513,0.032354,-0.069461,-0.064058,-0.075631,0.017758,0.097868,0.123170,0.020664,-0.097950,-0.033038,-0.038111,-0.016788,0.038209,0.050323,0.000000,
0.044337,0.028567,-0.040483,-0.001061,0.012727,-0.051079,-0.008946,-0.012483,-0.094481,0.067792,-0.010110,-0.086446,0.079117,-0.053807,0.035404,0.099171,0.004629,0.028770,0.039733,0.075579,-0.030682,-0.056272,-0.007826,0.078205,0.008598,0.069481,-0.000743,0.030682,0.003477,0.002715,-0.095162,-0.087423,0.008313,0.049493,0.067175,0.004339,0.042152,0.041824,-0.086325,-0.087893,-0.077535,0.001719,-0.063232,-0.032001,-0.014961,0.039016,0.023186,0.092768,0.090199,-0.063796,-0.000315,0.016513,0.087300,-0.030992,-0.039300,-0.063346,0.073686,-0.028331,-0.037453,0.067637,0.092016,-0.004214,-0.070491,0.081479,-0.034200,-0.046082,-0.070302,-0.048094,-0.078317,-0.057721,-0.091096,-0.020155,0.040208,-0.075913,-0.000140,-0.036876,0.048370,0.086612,-0.013256,-0.050330,-0.076836,-0.058752,0.028872,0.022944,0.053853,-0.014859,0.051383,-0.089092,0.026882,0.097079,-0.098970,-0.051913,0.064017,-0.015635,-0.053304,0.061006,0.006703,0.003917,-0.030373,0.075344,0.000000,
0.055470,0.017914,0.015261,0.051709,0.062301,-0.041020,-0.010956,0.043902,-0.048458,0.093505,-0.068500,0.046145,-0.071831,0.032107,0.069846,0.012055,-0.010023,0.063591,-0.071804,-0.067467,-0.085230,-0.061555,0.002595,-0.045345,0.022279,0.003374,0.083226,-0.043361,-0.027357,0.066139,-0.025285,0.095739,-0.039718,-0.001095,-0.023693,0.046655,0.038317,-0.053253,0.065894,-0.006354,-0.025288,-0.002017,0.069595,0.098094,0.048659,0.017498,0.065263,-0.041817,-0.052260,-0.028879,-0.064722,0.042997,0.009499,-0.034213,-0.010152,-0.001983,0.085743,0.089267,-0.076985,0.036650,0.038615,0.038237,-0.013633,0.025009,0.025164,0.097330,-0.095843,-0.037948,-0.067280,-0.048507,0.019634,0.060988,-0.075621,0.065041,0.083530,-0.049291,0.017454,-0.051338,0.021419,-0.046362,-0.038955,-0.066942,-0.083390,0.079801,-0.012628,-0.002774,-0.049767,0.069700,-0.057237,-0.040446,-0.078061,-0.084088,0.088779,-0.077220,-0.013806,-0.028946,0.036629,0.026747,-0.076659,0.089807,0.000000,
-0.109128,0.000287,-0.008354,-0.023174,0.068147,0.074704,0.013026,-0.044018,0.074345,0.053148,0.017961,-0.036819,0.004216,0.079923,0.001492,-0.019707,-0.095062,-0.063303,0.072223,-0.009521,-0.016292,0.029209,-0.065793,-0.016402,-0.028125,0.052322,0.071517,0.062791,0.074556,-0.089370,-0.035502,0.002136,-0.084935,0.027127,-0.074416,0.042851,0.080935,-0.095343,0.074113,0.037043,-0.075535,0.086601,-0.096154,-0.067322,-0.049745,-0.005064,0.008330,-0.039118,-0.094785,-0.011543,0.075872,0.066924,0.039973,0.004944,0.015219,-0.077091,0.030917,-0.099524,-0.041297,-0.026280,0.063449,-0.013102,-0.045551,0.017471,-0.092888,-0.026476,0.027695,-0.016208,-0.010502,0.051357,-0.085040,-0.050493,0.087222,0.010221,-0.016191,0.042149,0.050110,-0.016710,-0.051193,-0.016346,0.036311,-0.022599,0.048577,-0.081549,-0.058626,0.066801,0.013119,0.020137,0.032890,-0.031887,-0.049574,0.019089,-0.034010,-0.051005,0.013212,0.024188,-0.009029,-0.077244,-0.015120,-0.056673,0.000000,
0.055147,-0.055208,0.079734,0.039829,-0.085632,0.103248,-0.098894,0.015320,-0.062436,-0.069773,0.009908,-0.051121,0.072284,-0.090412,0.074749,0.060330,0.125359,-0.004057,-0.105555,-0.096893,0.095182,-0.024620,-0.012313,0.000061,0.017204,-0.082058,0.113442,-0.073994,0.098356,-0.039128,-0.044642,0.007272,0.029596,-0.018528,-0.117730,0.070338,0.042923,0.080200,0.115451,0.038107,-0.004274,-0.093356,-0.082323,-0.068850,-0.025372,0.058231,-0.029261,0.023612,-0.001411,-0.065368,-0.002707,0.134038,0.115881,0.082127,0.004000,0.001774,0.061242,-0.033263,-0.040527,0.085559,0.040629,-0.031188,0.084261,0.016598,0.086641,-0.126846,0.018557,0.070809,-0.014427,-0.027728,0.064858,0.046512,0.036450,0.041464,0.002207,0.071971,0.011480,-0.058864,0.042489,0.026680,-0.015138,0.021036,-0.000406,-0.047960,0.033774,-0.082167,-0.093206,0.037420,-0.054750,-0.030177,0.035969,0.024665,0.094083,0.037281,0.024758,-0.008951,0.014761,0.046256,0.068221,-0.094751,0.000000,
-0.048116,-0.089804,-0.039869,0.060958,-0.094750,-0.076178,0.057902,-0.051596,0.073087,0.034877,0.025102,0.069305,-0.092630,0.056382,0.018211,-0.067011,0.047025,-0.017361,-0.067999,-0.037139,-0.046539,0.097944,0.086070,-0.007435,-0.088678,-0.006118,0.025195,0.066842,0.003217,0.029105,0.026534,-0.049314,-0.062029,-0.089377,-0.021874,0.030973,-0.030905,0.111097,-0.014248,-0.065512,0.011007,-0.046333,-0.018283,0.096895,-0.002869,0.087354,0.013980,-0.025041,0.073316,-0.056963,0.003309,0.045306,0.066314,-0.096124,0.006904,-0.025892,0.061361,0.033644,0.040080,0.060126,-0.001974,0.015015,0.080225,-0.080599,-0.050319,-0.000771,-0.039613,0.004494,0.088336,0.001965,-0.104431,-0.045458,0.089401,-0.016935,-0.043848,0.047620,0.031791,-0.088168,0.078155,0.056312,0.063490,0.061812,-0.032459,-0.061383,0.045616,-0.031419,0.019605,-0.096899,-0.049432,0.013709,-0.007124,-0.048510,-0.066912,0.073186,-0.020106,-0.098253,0.096478,0.047550,-0.059814,-0.072983,0.000000,
0.096631,0.000418,-0.060142,0.057545,-0.020830,0.006850,-0.052093,-0.084699,-0.066412,-0.010980,-0.072395,0.098561,0.001082,-0.038283,0.039522,-0.088657,-0.051149,0.037560,-0.084966,0.049840,0.008406,-0.083381,-0.099243,0.031605,0.047267,-0.019991,-0.088426,-0.057635,0.010628,0.003638,0.025598,0.017682,-0.005242,0.052773,0.097001,0.083281,0.090868,-0.033750,-0.034131,-0.011060,0.029556,0.040478,-0.008914,-0.064593,-0.075450,0.096272,-0.026886,-0.013517,-0.061286,-0.049576,0.021964,0.042119,-0.039532,-0.036807,0.079216,-0.051502,-0.074608,-0.015602,0.095154,0.021759,0.013817,-0.012451,0.062489,-0.049565,0.067801,0.023624,0.011118,0.013767,-0.061673,0.074271,0.052521,-0.078212,-0.093108,-0.025743,0.066435,-0.049233,0.092684,-0.050278,-0.090330,0.043989,-0.060434,-0.015764,-0.031190,-0.007946,-0.087137,-0.091720,0.042988,-0.011332,-0.060323,-0.002547,-0.091273,0.026544,0.047490,0.096982,-0.081467,-0.012126,0.054269,0.091646,-0.071147,0.042496,0.000000,
0.060278,0.069427,-0.068942,0.071362,-0.043556,-0.071845,0.019856,0.087879,-0.066222,0.056846,-0.011453,0.056628,0.078007,0.061411,-0.052215,-0.030108,0.006042,-0.090799,0.072205,-0.008812,-0.011842,0.029717,-0.080482,-0.059967,0.045610,-0.098904,0.056224,-0.077108,-0.001610,0.020528,0.039459,-0.063740,0.013457,0.043059,0.124374,-0.075255,0.027427,0.018548,-0.001223,-0.058134,-0.066472,-0.052992,-0.054059,-0.042577,-0.069440,-0.087725,0.015890,0.050134,-0.047149,0.010000,-0.001233,0.036683,-0.082791,0.019701,0.099305,0.071392,-0.084939,-0.015054,0.000932,-0.033020,-0.079157,-0.083143,0.066447,-0.032375,-0.019062,0.064674,-0.061379,0.019540,0.059481,-0.068736,0.065873,-0.003416,0.067576,0.068198,0.026531,0.008209,-0.098690,0.039815,0.077728,-0.036323,-0.030452,0.068691,-0.016384,0.072477,-0.014737,0.091476,0.097528,0.062684,-0.031824,0.110549,0.061052,0.019330,-0.079755,-0.048249,-0.098939,0.066883,0.098849,0.069094,0.031952,0.023634,0.000000,
0.096264,-0.050698,-0.033573,-0.089788,-0.009902,0.006860,0.027374,-0.069568,-0.011572,-0.082400,-0.081344,0.013034,-0.097615,0.026628,-0.092120,-0.069583,-0.020750,-0.095428,0.080763,0.081936,-0.052233,0.020948,0.051158,0.031777,-0.013396,-0.094321,0.072714,-0.087710,-0.018520,0.006203,-0.032934,-0.036575,-0.086427,0.005510,-0.011355,0.087180,-0.032922,0.077292,0.004734,-0.044928,-0.023782,-0.011348,0.001036,-0.016475,0.029677,0.082352,0.015718,0.036221,0.061752,0.021555,0.046097,0.052455,0.093601,-0.091265,0.034219,-0.004531,-0.017959,-0.038554,0.060120,0.091479,-0.081609,0.054028,0.068955,0.017477,0.001178,0.076953,0.002965,-0.024942,-0.007384,0.032084,0.025034,-0.005395,0.031567,0.026932,-0.081006,0.024918,0.061184,0.011468,-0.009128,0.076603,-0.087368,-0.045644,-0.045199,0.086405,-0.096722,0.009918,-0.096869,-0.003288,0.037274,-0.023385,0.097074,0.000318,-0.050983,0.025787,0.052006,-0.000199,0.085547,-0.063292,0.042668,0.056784,0.000000,
0.060211,0.017614,0.028546,-0.078451,-0.078476,0.028063,-0.012533,0.098907,0.072613,0.089590,-0.045803,-0.071906,-0.093800,0.035306,-0.088030,-0.099826,-0.010815,-0.053834,-0.064867,-0.077032,-0.032984,0.125457,-0.018845,0.104298,0.002219,-0.012859,0.008118,-0.071483,-0.080345,0.069242,-0.030816,-0.071146,0.091773,0.001855,-0.072984,-0.078605,-0.156900,-0.052954,0.113678,0.086317,0.019647,-0.087650,-0.013511,-0.093939,0.034462,-0.026552,-0.003047,0.001366,0.046885,0.054129,0.021906,0.024853,0.029142,0.011627,-0.054519,0.097577,-0.029298,0.058181,-0.056060,0.000671,0.072988,-0.052803,0.045870,-0.076544,0.051393,-0.025210,0.057322,0.113540,0.022537,0.031508,-0.053076,0.037284,-0.033137,0.064758,-0.043343,0.088440,0.115062,0.061318,0.013056,0.046374,-0.145585,0.118136,-0.006896,0.014395,-0.002481,-0.029051,-0.046961,0.064502,-0.054405,-0.026946,0.065707,0.027275,-0.059051,-0.070065,-0.048617,0.092232,-0.071103,0.071490,0.071582,-0.041450,0.000000,
-0.044161,-0.071944,0.015598,-0.013980,0.004858,0.043376,0.041984,-0.031550,0.006868,0.023755,0.002129,0.020011,-0.040509,0.081967,-0.010257,-0.012795,-0.089751,-0.072487,0.003111,-0.015465,-0.050278,0.052345,-0.008953,0.035169,0.084227,-0.045975,-0.049217,-0.020095,-0.008468,-0.050016,-0.024008,-0.002882,0.044856,0.092516,0.074051,0.010583,-0.006302,0.025615,-0.004082,-0.013124,0.034387,-0.081360,-0.085044,0.000405,-0.030310,-0.049462,-0.093094,0.066986,-0.003984,-0.053728,-0.040734,0.026290,-0.072523,0.006423,-0.001233,0.034066,0.039670,-0.065338,0.043179,0.075512,0.006438,0.050945,-0.037859,0.019863,0.029220,-0.046188,0.061742,-0.094550,-0.037564,-0.058839,-0.059364,-0.060595,-0.094229,0.017162,-0.019782,-0.084201,-0.000041,-0.016658,0.041253,-0.078329,-0.028133,0.020583,0.042389,0.007565,0.027100,0.099963,-0.034641,0.068154,0.086139,-0.088462,0.024189,0.056645,-0.015599,0.055190,0.003401,0.076128,0.002153,-0.064022,0.075944,0.029740,0.000000,
0.085289,0.033078,0.053101,0.062351,0.016839,0.002860,0.020653,-0.060218,0.003416,-0.019001,0.006322,-0.083345,0.061102,-0.103949,0.034014,0.065856,-0.060150,0.112750,-0.113433,-0.047504,0.060929,-0.009371,0.089119,-0.031553,-0.013388,-0.065369,-0.017308,0.097585,0.075206,0.007363,0.008222,-0.066701,0.075495,-0.014993,-0.058002,-0.079582,0.030939,0.074157,0.074923,0.018343,-0.066657,0.027778,0.014069,0.033557,-0.024901,-0.047192,0.091211,0.058088,-0.040586,0.008930,-0.021738,0.019047,0.086785,-0.076211,0.101454,0.067306,0.004000,-0.040903,0.020389,-0.066191,0.095380,-0.021649,0.019107,-0.098383,0.077236,0.047580,0.075058,0.014959,0.059044,0.060329,0.052878,0.056431,-0.082262,0.025492,-0.034092,-0.036028,0.097784,-0.014312,0.017380,0.062963,0.023930,0.082035,-0.007498,-0.125576,-0.091336,0.025014,-0.001187,-0.063181,0.043673,0.071508,0.063354,-0.006327,0.031735,-0.042515,0.047199,-0.077495,0.069039,-0.038847,-0.039661,-0.083761,0.000000,
-0.022017,0.000353,-0.046093,0.071185,0.057390,-0.060379,-0.010003,0.048302,0.096480,-0.008736,0.061393,-0.007938,-0.038354,0.050844,-0.096256,0.083780,0.131466,-0.002970,-0.000649,0.069695,0.041096,0.063093,0.036719,-0.026615,0.024410,-0.053297,0.115922,-0.042851,0.022861,-0.028968,0.050010,0.021438,0.054985,-0.027078,-0.074627,0.038339,-0.133735,-0.053968,0.054974,-0.050302,-0.034490,-0.036927,0.011594,-0.034634,-0.035990,-0.025134,0.081005,0.056289,-0.048144,-0.069123,0.002317,0.065785,0.030891,0.063840,0.096876,0.029309,0.038849,0.058016,-0.034258,0.017738,0.112955,-0.015201,0.007783,-0.039096,-0.046293,0.014825,0.079905,-0.045300,0.037479,0.058462,0.025784,0.055046,0.100510,0.092450,-0.087501,-0.025753,0.082328,-0.057087,0.023430,-0.042870,-0.040913,0.078918,0.043217,0.038009,-0.005368,0.049567,0.032329,-0.031515,-0.070627,0.071066,-0.022422,0.084998,0.090811,0.019267,-0.082601,0.008050,-0.048342,0.034666,-0.039749,0.077075,0.000000,
-0.090224,-0.026920,0.015770,0.009540,0.082154,-0.031596,-0.079825,0.066208,0.027943,0.065874,-0.059186,-0.058735,-0.040395,0.007110,0.033886,-0.057465,-0.009415,-0.017283,0.091244,-0.036064,0.096907,-0.061333,-0.041206,-0.075214,0.073670,-0.068768,0.041393,-0.036746,0.099651,0.014106,-0.086842,0.017210,0.012158,-0.096721,0.020069,0.095410,0.028778,-0.000532,-0.020730,0.026574,-0.044552,0.098477,0.086446,0.046717,-0.037248,-0.093895,-0.057567,0.097229,-0.091788,-0.095481,-0.007207,0.031815,-0.099529,-0.092842,0.000544,-0.033543,0.069668,0.028711,-0.086802,-0.090131,0.068675,-0.017732,-0.043746,0.031498,-0.019654,0.047825,0.025359,-0.043297,-0.080149,0.054134,-0.060081,-0.011060,0.013673,-0.058197,0.054472,-0.070339,0.024561,0.010695,0.036691,-0.098142,0.005777,0.048751,-0.064022,0.024745,0.000392,0.084835,-0.021175,0.000683,-0.043494,-0.024645,0.028628,-0.096444,0.075861,0.071910,0.042350,0.074860,-0.031129,0.022778,0.005087,-0.069149,0.000000,
-0.038445,-0.035501,-0.024725,-0.088794,-0.070329,-0.009496,-0.015212,-0.090775,0.021367,0.054449,0.083281,0.084160,-0.069877,-0.032048,-0.047440,0.018341,0.026797,0.022249,0.058437,0.052758,-0.053675,0.068648,0.067457,0.013234,-0.087002,-0.061333,0.027868,0.034574,0.093245,0.050895,0.036244,-0.003411,0.068187,-0.036399,0.040717,-0.047629,-0.000933,0.059099,0.045885,-0.022440,-0.001266,-0.055513,0.046320,0.067288,0.034422,-0.096766,-0.071585,0.066946,-0.014318,0.061413,0.073711,-0.029293,-0.058672,-0.094079,0.038252,0.051288,-0.017337,-0.097083,-0.064411,-0.005388,0.045640,-0.033508,-0.064556,-0.069618,0.089473,0.036212,-0.081192,-0.061757,-0.084889,0.014468,-0.040607,-0.000339,-0.015820,-0.087534,-0.089363,-0.077563,-0.041881,0.015553,-0.047028,-0.003564,-0.011978,0.091454,-0.045587,0.093953,-0.076769,-0.083433,0.032519,-0.058200,0.051292,-0.055325,0.078746,0.096829,0.006402,0.021372,0.093232,0.059282,-0.087299,-0.003201,-0.090268,0.076389,0.000000,
-0.032134,-0.014144,-0.061439,-0.054375,0.012978,0.069792,-0.050265,-0.003867,0.090521,0.076333,-0.019551,0.079576,0.036417,0.076221,-0.011613,-0.084749,-0.040762,0.017100,0.039595,-0.116277,0.064344,-0.102621,0.058592,0.085374,0.024643,-0.018873,0.042158,-0.029680,-0.074073,-0.070969,0.047018,0.063283,0.004049,-0.096959,-0.114168,-0.022581,0.040453,-0.079408,0.013730,-0.068136,0.067568,-0.041320,-0.034543,-0.087708,-0.089569,0.006758,0.002736,0.041201,-0.087443,0.017522,-0.014446,0.045247,-0.058711,0.016105,0.026956,0.050234,-0.047953,0.032181,-0.019598,0.026928,-0.074622,-0.092780,-0.081799,-0.062863,-0.055255,0.001778,-0.021874,-0.070432,0.000840,-0.044326,0.046235,-0.082361,-0.050488,-0.077474,0.012339,-0.007874,-0.018895,0.099220,-0.051897,-0.014373,0.012176,0.070620,0.062412,-0.003863,-0.051417,0.018482,0.062919,-0.002134,0.054903,0.065249,-0.067156,-0.035573,-0.102235,0.010027,0.071269,-0.019419,0.015957,0.018420,-0.002133,0.077744,0.000000,
0.014572,-0.098295,-0.082579,-0.099077,0.004122,0.054057,-0.013193,0.089911,-0.017990,0.020445,0.090174,0.050609,-0.003190,0.096322,-0.059746,0.037248,0.063154,-0.061919,-0.093934,0.031986,-0.037939,-0.050464,0.019891,-0.072543,0.089940,-0.008977,-0.032025,0.083598,0.027844,0.019052,-0.047813,0.095307,-0.030457,0.083173,-0.007351,0.050164,0.070312,-0.074450,-0.066650,-0.098885,0.072126,0.085999,-0.036547,-0.048978,0.016739,0.053838,0.024684,-0.020841,-0.063607,0.085527,-0.064761,-0.096630,-0.039927,0.019941,0.037169,0.038667,-0.057930,-0.038379,-0.044468,-0.048426,-0.084227,0.020470,-0.029082,-0.096251,-0.058392,-0.060055,-0.043136,-0.061790,-0.017342,0.035836,-0.080931,-0.008566,-0.028779,-0.051126,-0.022205,-0.042383,0.003215,-0.072185,0.018964,0.091813,0.082861,-0.044836,0.030823,-0.094520,0.084194,-0.099656,-0.089363,-0.089763,-0.092865,0.013543,-0.026443,0.023935,-0.006187,-0.002148,-0.036128,-0.059329,-0.083726,0.050458,-0.051560,-0.020338,0.000000,
0.048569,-0.024766,-0.025213,-0.066665,-0.085560,0.047997,-0.022562,0.062880,0.006582,-0.000127,-0.090280,0.002208,-0.022600,-0.057063,-0.023144,0.005228,-0.075348,0.016628,0.069582,0.019755,0.095455,0.046664,-0.078865,-0.039361,-0.024064,0.029914,-0.002852,0.080470,0.011617,-0.063331,-0.036662,-0.083196,-0.027573,0.049166,0.000966,-0.095360,-0.086530,0.036255,-0.087770,-0.079762,-0.059621,0.095312,-0.028435,-0.041230,-0.067521,0.063971,-0.016147,0.019283,0.023889,0.028203,0.064009,0.005189,0.010344,-0.006494,-0.077707,-0.022885,0.095175,-0.070872,-0.063111,-0.099231,0.006064,-0.093532,-0.051219,0.092144,0.041416,0.053277,0.017123,-0.084978,-0.046532,-0.080956,-0.061836,0.034054,-0.027735,0.097726,-0.072896,-0.085341,0.098740,-0.086386,0.085093,0.026928,-0.091145,0.087098,-0.027224,-0.041234,-0.078010,-0.084585,0.022265,-0.098226,0.041093,-0.024711,0.035095,-0.024484,0.034582,-0.002732,0.029392,-0.040684,-0.068785,0.012736,-0.063828,-0.061991,0.000000,
-0.096157,-0.031875,-0.066819,0.077875,0.072065,0.023726,0.081251,0.048151,-0.094202,-0.010006,-0.016232,-0.060716,0.028481,-0.031211,-0.047818,-0.001166,-0.066487,0.082765,0.063278,0.094659,-0.017712,0.032660,-0.004022,-0.082748,0.045242,-0.069849,-0.036098,-0.044782,-0.097557,0.003587,0.016382,-0.007434,0.073545,0.004795,-0.018215,-0.054544,-0.059391,-0.014217,-0.058690,-0.065967,-0.013226,-0.017657,-0.061042,0.058429,0.084808,-0.068183,0.043801,-0.046401,-0.010383,0.093350,0.012796,-0.095347,0.091929,-0.004231,-0.050073,-0.052811,0.085753,0.001688,0.055233,0.065723,-0.038813,0.008488,-0.064686,0.083505,-0.052879,0.066422,0.025337,0.061687,-0.070457,-0.003110,0.051816,-0.003992,-0.001435,0.048730,-0.074740,-0.020049,0.045549,0.049045,0.092878,-0.019782,0.023694,-0.049203,-0.016783,-0.050202,0.074107,0.000609,0.040681,0.055005,0.018635,0.010642,-0.007319,-0.084707,0.016112,-0.022154,-0.084053,0.093168,-0.010661,-0.049909,-0.097352,-0.092105,0.000000,
0.038580,-0.036741,-0.043197,-0.057862,0.080721,0.003828,0.064818,0.096995,-0.077530,0.088996,-0.019096,0.091238,0.051078,-0.110136,0.008695,0.035153,0.000212,0.099822,-0.136749,-0.064343,0.105187,0.121395,0.049954,-0.046249,-0.086040,-0.081307,0.006624,0.056650,0.031660,-0.012144,0.089935,0.097806,-0.046738,-0.043306,-0.020077,0.020752,-0.094149,0.067119,0.084619,-0.009309,0.050565,-0.001412,0.041382,0.041168,-0.026728,-0.044586,0.052621,-0.037676,0.052500,-0.064162,0.068603,0.075587,0.010142,0.061005,-0.021116,0.021304,0.033915,0.010213,0.020082,-0.001985,0.004808,0.090864,0.039443,0.037300,0.099415,-0.105278,-0.023234,0.004678,0.080698,-0.051710,-0.073765,-0.023820,-0.079563,-0.063166,0.068502,0.017220,-0.048591,-0.016512,-0.001066,-0.035552,-0.160797,0.085375,-0.001566,0.051223,-0.071217,-0.062131,-0.005195,-0.069638,0.072877,0.054659,0.096692,-0.054576,0.099103,0.092301,-0.039790,0.010973,0.047652,0.079012,-0.093400,0.099557,0.000000,
-0.025981,0.048879,-0.062109,-0.076954,-0.067723,0.086449,-0.049327,0.072266,0.030231,0.053535,-0.022242,-0.037331,-0.046788,-0.069858,0.081436,-0.005435,-0.009669,-0.069361,-0.043688,-0.127109,0.007984,0.086619,-0.057597,0.067897,-0.031899,-0.076911,-0.068772,0.049678,-0.076509,0.048828,0.014318,0.073385,-0.075169,0.087449,-0.118398,-0.075904,-0.008002,0.031368,-0.040870,-0.013078,-0.088712,-0.102558,-0.019668,0.076285,0.029865,0.018857,-0.017364,0.116892,0.000958,0.033765,0.001589,0.047094,0.065578,0.079470,0.068744,0.012798,0.043332,-0.030073,0.068354,0.028072,0.107162,0.016804,-0.081648,0.019755,0.071143,0.043110,0.038759,0.043540,0.079581,-0.006840,0.071751,0.051269,0.071590,0.086852,-0.081699,0.064100,0.123377,-0.070252,-0.007555,-0.061029,-0.083972,0.044782,0.063573,-0.069905,-0.090534,0.045782,0.056103,-0.018129,0.085608,0.054932,-0.016920,0.011521,0.038973,0.002939,-0.024636,-0.045140,-0.056869,0.056489,-0.029694,-0.047974,0.000000,
0.088089,0.015988,0.072152,0.091129,-0.014087,0.014916,0.092714,-0.068804,-0.029983,0.014230,-0.006784,0.026624,0.052583,-0.041142,0.007786,0.090471,-0.056585,-0.067813,-0.076690,0.059776,-0.091723,-0.048630,0.067539,-0.059948,0.081321,-0.046746,0.015820,0.013090,-0.002453,0.062284,0.084932,-0.062436,0.056083,0.026719,-0.001863,-0.069921,0.029664,0.072584,-0.085834,-0.092355,-0.098308,0.023106,-0.028733,-0.031063,0.093116,-0.025507,-0.063505,0.008995,-0.054886,-0.029299,0.052823,0.023079,-0.068622,0.095204,0.067656,-0.068168,0.043558,0.041092,-0.071755,-0.070279,-0.082802,0.044545,0.017422,0.042262,-0.043923,0.075192,0.012769,-0.079793,-0.025170,0.051034,0.021988,-0.015298,-0.069866,-0.062207,0.086253,-0.057284,0.070864,-0.033472,0.001000,-0.097379,-0.032506,0.084298,-0.089780,0.050316,-0.084158,0.014585,-0.090664,-0.079163,-0.080730,-0.034675,0.013616,-0.073317,0.025344,0.060229,0.081520,0.088545,0.065839,-0.029446,-0.009216,0.088477,0.000000,
0.049746,-0.026519,0.075500,-0.087392,0.085587,0.055951,-0.073346,-0.081561,0.078203,0.098651,0.008726,-0.039074,0.056941,0.045114,-0.012480,0.080062,0.064817,0.024930,0.051923,-0.093670,-0.046841,0.010962,0.027194,-0.013671,0.037759,0.030463,-0.092420,0.031542,-0.008131,-0.068815,0.003375,-0.024594,-0.053104,-0.091124,0.083656,-0.060730,0.013431,0.080110,-0.012598,-0.065541,-0.096746,0.016615,-0.050176,0.007293,0.031942,-0.028333,0.067805,-0.013013,-0.039909,-0.066120,0.030340,-0.061826,0.021021,-0.012621,0.068726,-0.049024,-0.049262,-0.012923,-0.061078,0.038124,-0.036630,0.041028,0.058037,0.058393,-0.018358,0.054574,-0.052953,-0.099635,-0.009517,-0.072507,-0.077473,0.025420,0.085452,-0.039353,-0.005657,-0.072449,0.017478,0.028510,-0.015351,0.076083,-0.080483,-0.013417,-0.055507,0.087806,0.084701,0.098365,0.092004,0.039606,-0.076571,-0.067832,0.023972,-0.089280,0.063308,0.043474,0.023859,-0.087282,0.072745,-0.010584,-0.041964,0.052211,0.000000,
-0.013340,-0.057938,0.023405,-0.066686,0.092941,0.104329,0.046118,0.056624,-0.099406,-0.061956,-0.096227,-0.077532,-0.082907,0.042665,0.025114,0.058891,-0.019934,0.085681,-0.051635,-0.064128,0.041631,0.075155,-0.071873,0.087640,-0.010093,0.026634,-0.077071,0.011133,-0.049492,-0.062614,-0.041753,0.000953,-0.028488,-0.064059,0.037708,0.029750,-0.126454,0.038528,0.020176,-0.009960,0.003385,-0.040226,0.024149,-0.070398,-0.042638,0.074911,-0.074205,0.062234,0.092527,-0.091441,-0.043810,0.105785,0.017898,0.000982,0.004411,0.041210,-0.059369,0.012982,0.068118,-0.008436,-0.067821,0.059240,-0.025529,-0.021097,0.074798,-0.012225,-0.060495,-0.061172,-0.015201,-0.008045,-0.053753,-0.068351,0.055623,0.047841,0.019735,0.013854,0.032391,0.074773,0.002402,0.015233,-0.086765,0.055081,-0.104701,-0.007559,-0.104097,-0.068457,0.052794,-0.059561,0.079627,-0.091170,0.078211,0.016927,-0.029246,0.068370,-0.088559,-0.063349,-0.062651,-0.001889,0.009824,-0.086011,0.000000,
0.088147,-0.008467,-0.053400,0.002389,-0.042925,0.019185,0.036201,-0.036726,0.005830,0.051115,-0.065043,-0.030631,-0.014752,-0.074425,-0.000155,0.003675,-0.089235,0.012115,0.095447,0.047120,-0.062620,0.083137,-0.068739,-0.059225,0.044109,0.079554,0.087000,0.086092,-0.055065,0.022883,-0.062791,-0.006185,0.082850,0.049239,-0.100485,-0.043037,-0.084374,0.038694,-0.021082,-0.081475,-0.040309,0.024582,0.000901,0.093831,-0.001328,0.031456,-0.038668,0.003525,0.003582,0.085898,0.041901,-0.065406,-0.097309,-0.103505,-0.044693,0.012927,0.085714,-0.009825,0.039099,0.050823,-0.085047,-0.091183,0.037892,0.046611,-0.054997,0.015671,-0.097911,-0.007107,0.024512,-0.007462,-0.024089,0.041623,-0.035851,0.066052,-0.086133,-0.065530,-0.091929,-0.090440,0.065781,-0.024747,-0.078553,0.012318,-0.084101,0.005169,0.039176,-0.029466,0.051408,0.020524,-0.080244,0.011722,0.056099,-0.031552,0.001975,0.004362,0.008599,0.025995,-0.095746,0.067500,0.043614,0.012349,0.000000,
0.014537,-0.074421,-0.028552,-0.004350,0.023771,-0.022689,0.010610,-0.009537,0.072788,-0.072467,0.010453,0.059118,-0.077668,-0.019290,0.032732,0.040353,0.052253,0.067180,-0.119418,0.049972,0.009669,0.090932,0.022122,0.001026,0.042834,0.094930,0.134573,-0.084175,0.006065,-0.071838,0.058265,0.091953,-0.070220,-0.005780,0.047992,0.066131,-0.142286,0.099692,-0.002585,-0.079107,0.017366,0.028658,0.059061,-0.067992,-0.072428,-0.067189,0.064084,-0.057744,-0.000843,-0.029386,0.043660,0.059377,-0.011236,0.017544,0.101990,0.016464,-0.048777,0.003348,-0.091725,-0.064160,0.019599,-0.023348,0.084682,0.019411,0.113499,-0.070025,-0.013908,0.029687,-0.029734,-0.002079,-0.117091,0.075335,0.092912,-0.083579,-0.033086,-0.064695,-0.002461,0.076131,0.051734,-0.007759,-0.018525,0.065219,0.063204,-0.124394,0.032665,-0.105848,-0.065767,-0.037265,-0.009743,-0.120949,0.005214,0.021677,-0.010666,0.057643,0.087382,-0.017081,-0.053258,-0.084247,-0.073020,-0.055309,0.000000,
-0.073927,-0.039315,0.055088,0.031292,0.090132,0.099285,-0.036011,-0.039162,0.013684,-0.079628,0.054392,-0.017998,-0.083733,-0.075498,-0.068907,0.027485,0.076657,0.079225,-0.027535,-0.058086,-0.044383,-0.068312,-0.025782,-0.090314,0.053450,-0.094120,-0.062205,0.067110,-0.074801,0.023906,0.074902,0.098571,0.050599,-0.026837,0.057144,-0.003300,-0.030834,0.000326,0.022431,0.067052,0.041976,0.047749,0.014960,-0.005033,0.041990,0.024052,-0.095689,0.016168,-0.044409,-0.053030,0.038673,0.020449,0.016934,-0.047438,0.046207,0.093843,0.012234,0.041103,-0.087733,0.059450,0.034739,0.045053,0.041701,-0.026302,-0.006003,0.096727,0.073174,-0.071679,0.079342,0.099523,0.013151,-0.078018,0.019384,-0.020196,0.071899,-0.096078,0.025590,-0.001173,0.007872,0.068789,0.001806,-0.080508,-0.058334,-0.040040,0.010665,0.038590,-0.018666,-0.039468,0.043881,-0.097231,0.069878,-0.011625,0.069583,0.075561,0.010683,0.031633,-0.056561,0.071648,0.058530,-0.015706,0.000000,
0.038978,-0.005601,0.078129,0.041164,0.072905,-0.090898,0.097433,0.037258,0.048618,0.022283,0.065679,0.094142,-0.008519,-0.082052,0.091826,-0.021089,-0.048228,0.061559,0.055808,0.013388,-0.006277,-0.019130,0.091691,0.060928,0.059554,0.063768,-0.052336,0.020880,-0.086509,0.058098,-0.099121,-0.099940,-0.098848,0.061667,0.010407,0.000227,0.015905,-0.037845,-0.030366,-0.067359,-0.024422,-0.061534,0.002631,0.078571,-0.082669,0.049177,-0.074380,-0.041432,0.019554,0.017207,0.082008,-0.000037,-0.038087,-0.041357,0.002932,-0.074983,-0.078406,-0.042786,0.002569,-0.067534,-0.057083,0.071400,0.092412,-0.031324,-0.085794,-0.038285,0.040360,0.032454,-0.031000,-0.088072,-0.030069,-0.022359,0.057586,-0.049587,0.060016,0.013872,-0.016760,-0.089118,0.098727,-0.017832,0.062920,-0.051727,-0.097383,-0.079710,-0.051249,-0.031847,-0.014121,0.083401,-0.092226,0.049912,0.084143,0.000644,-0.062364,0.003198,0.023724,0.044246,-0.030397,-0.034317,-0.047177,-0.096721,0.000000,
0.035670,-0.066231,-0.048040,-0.001029,0.077090,0.118897,-0.072736,0.107478,0.089578,0.096004,0.008706,0.075908,0.048587,-0.084456,-0.062198,0.001881,-0.032897,-0.007381,0.034212,0.013325,0.097466,0.025955,-0.050990,0.080402,0.007372,0.016840,-0.008866,0.041077,-0.073855,0.079798,0.087484,0.056553,0.077873,0.060697,-0.056261,-0.086733,-0.051827,0.093083,0.006319,0.017542,0.075674,0.026956,0.077868,0.014684,0.011209,-0.023920,-0.006510,-0.025321,0.066858,0.091205,0.037111,0.040853,0.003880,-0.094727,-0.006049,-0.070991,-0.069191,-0.019802,-0.019672,0.020173,-0.036785,0.108440,-0.091045,-0.047359,-0.004345,-0.040062,0.041338,-0.018488,0.015607,0.006141,-0.054921,-0.013988,0.026228,-0.080340,-0.069604,0.091374,0.080514,-0.002674,0.005473,0.013804,-0.031731,-0.035340,-0.015911,-0.134315,-0.073050,-0.025806,-0.013204,0.078215,0.017225,-0.038248,0.003585,0.064803,0.001096,0.005678,-0.020061,-0.080637,-0.013976,-0.084664,-0.053752,-0.063651,0.000000,
0.066104,-0.100662,0.096353,0.037495,-0.067579,0.074007,-0.022036,-0.094557,-0.013887,0.040787,-0.097229,-0.015765,0.040688,-0.046916,0.001016,-0.039192,-0.076561,0.069547,-0.077450,-0.008210,0.024742,-0.064656,0.048284,-0.091660,0.095505,0.044536,-0.023208,-0.083184,0.003084,0.035471,-0.054311,-0.021301,-0.099658,-0.099970,-0.018375,0.083675,-0.000639,0.022470,-0.048626,-0.041197,-0.019404,-0.058387,0.052753,0.062360,-0.077740,0.030672,-0.049873,-0.066327,-0.012200,-0.031016,-0.056939,0.005348,0.047731,-0.023891,-0.015583,0.007525,-0.051448,0.052941,0.092268,-0.009140,-0.002447,0.071233,0.081906,-0.074390,-0.055381,-0.092854,0.061249,0.069533,-0.036396,0.023225,0.016487,-0.086036,0.031443,0.040412,0.002199,0.001650,0.013838,0.072041,0.079934,0.014373,0.048829,-0.035163,0.051048,-0.046686,-0.090909,0.038725,0.037089,0.022011,0.042547,0.004705,0.025538,0.032212,-0.063989,-0.014103,0.015070,-0.015182,-0.084078,0.000960,0.061114,-0.053480,0.000000,
0.089118,0.013201,0.042531,-0.038615,-0.081801,-0.047666,0.003055,-0.057107,0.089057,-0.073882,-0.067353,-0.044066,0.089715,-0.052772,0.084714,0.048057,-0.028559,0.041459,0.042848,-0.044749,-0.030256,0.086590,0.057332,-0.058674,-0.026889,0.056049,0.037879,0.007927,-0.064344,-0.073757,-0.021107,0.026674,-0.010661,-0.083608,-0.029019,0.099817,-0.082652,-0.088137,0.052924,0.089897,-0.105344,-0.096909,-0.040517,0.099703,-0.056756,0.008550,0.071968,-0.045788,-0.030667,-0.067123,0.003840,0.082687,0.027606,0.060969,-0.016374,-0.015884,-0.027219,0.057035,-0.013113,-0.085420,-0.048288,0.025848,0.097497,-0.018183,-0.099976,-0.073603,-0.078681,0.030786,0.073713,0.019106,0.028577,0.065148,0.058941,0.049765,0.055920,0.017263,0.038342,-0.068617,-0.073923,0.026894,0.014815,-0.100704,-0.082552,-0.074467,0.070028,0.057121,-0.052635,0.015088,-0.023001,0.085124,-0.100026,-0.082536,-0.096239,0.047992,-0.049989,0.059561,0.033803,-0.058421,-0.026939,-0.040468,0.000000,
0.044117,-0.040103,0.033937,0.007144,-0.079861,-0.062861,-0.069337,0.052399,0.021668,-0.002514,-0.059544,-0.099081,-0.035389,-0.076534,-0.099466,-0.095376,-0.065319,-0.097214,0.031173,0.037417,0.040307,-0.099549,0.061836,0.019496,0.051134,-0.024578,0.048021,-0.094842,0.034061,0.079296,0.042037,-0.094261,-0.028072,-0.012418,0.052395,-0.037840,0.014383,-0.035105,-0.015886,-0.001991,-0.057422,-0.069409,0.082554,0.084020,-0.003027,0.086557,0.077059,-0.062988,-0.039736,-0.068685,0.032331,0.002529,-0.013714,0.074247,-0.039087,-0.054729,-0.071088,-0.050873,0.096383,-0.048619,-0.027515,0.045071,-0.076803,-0.060696,0.073601,-0.038354,-0.051891,-0.012938,-0.014249,0.018275,0.036662,-0.077105,0.090876,-0.095075,0.033868,-0.028216,-0.042230,0.093542,-0.096365,0.006830,0.064078,0.089399,-0.084542,0.012048,0.098938,-0.097953,0.024425,-0.062657,0.016234,-0.090458,0.049200,-0.022184,0.059764,-0.001504,-0.014254,-0.024278,-0.091564,-0.042476,0.003321,-0.077365,0.000000,
0.072481,-0.080569,-0.038959,-0.013373,-0.081006,-0.016648,-0.048154,-0.099626,0.002453,0.072872,0.024625,0.067429,-0.000978,-0.048847,0.066046,-0.053252,-0.108354,0.006086,0.058187,-0.045430,0.019620,-0.051293,-0.012133,-0.037781,-0.021389,-0.081366,0.008486,-0.026304,0.076464,0.016691,-0.081782,-0.091824,-0.052116,0.047888,-0.075331,-0.045747,0.022026,-0.085253,-0.064931,0.075134,-0.068202,-0.046756,0.056145,0.022408,0.078490,-0.088099,0.034414,-0.031161,-0.064065,-0.042830,-0.096727,0.053775,-0.035021,-0.113469,0.069924,0.064771,0.025920,0.097873,0.090305,0.093456,0.073575,0.065211,0.026179,-0.008375,-0.012256,-0.037448,0.046986,-0.012606,0.023593,-0.080297,-0.050437,0.074970,-0.005733,0.018819,-0.087301,-0.058448,-0.017893,-0.010494,0.048478,-0.030178,0.087553,-0.035336,0.023314,-0.058116,0.001542,-0.112357,-0.085799,-0.064001,0.027996,0.004650,-0.005798,-0.026463,0.068040,0.082184,0.042469,0.079525,-0.004942,-0.052278,0.019441,0.065754,0.000000,
-0.028515,-0.091150,0.033024,-0.025492,-0.048137,0.046377,-0.003394,-0.075894,-0.059837,0.079026,0.065045,-0.083725,0.000048,-0.011350,0.037163,-0.085646,-0.017263,0.016997,0.080437,0.021878,-0.064093,-0.112322,0.054051,0.076307,-0.030192,-0.089365,0.011661,-0.070110,-0.065337,0.027259,-0.009496,-0.022548,0.089695,-0.017540,0.055342,-0.031122,0.106285,0.013478,0.073837,0.020519,-0.048668,0.035295,0.071724,0.018953,0.046103,-0.070352,0.039665,-0.111241,0.088402,0.041302,0.006581,-0.114381,0.072991,0.050129,0.077430,0.039311,0.019956,-0.025903,-0.040980,0.039640,0.016766,-0.021579,0.015906,0.034351,-0.114301,-0.064018,-0.026620,0.053947,0.048788,-0.112326,-0.037408,-0.010571,0.018918,0.066503,0.002187,-0.092717,-0.010845,-0.038616,-0.074461,0.055389,0.021569,0.029818,0.063237,0.035381,0.042468,-0.058597,0.055822,0.003995,0.066453,0.093635,-0.089615,0.080620,0.046973,-0.096699,0.029314,-0.081411,0.032439,0.001273,-0.095461,0.036302,0.000000,
-0.023278,0.107127,0.097601,0.034521,0.078824,0.048085,0.094610,-0.012327,0.024715,-0.007640,-0.001749,-0.028121,-0.039575,0.052984,0.041340,-0.044144,-0.071649,0.060212,-0.121821,-0.029253,-0.078034,0.095413,0.081428,-0.073233,-0.092973,-0.059125,0.041019,-0.050008,-0.023815,-0.025348,0.018343,-0.036743,0.045481,-0.071559,-0.020457,0.083823,-0.120054,0.089423,0.061729,-0.024744,0.039553,-0.074183,0.013403,0.028326,0.086496,-0.055958,-0.048957,-0.037547,-0.097417,0.020223,-0.082777,-0.012309,-0.029943,0.011378,0.038688,-0.072669,-0.023493,-0.009614,-0.057808,0.023101,0.051490,-0.055363,0.078632,0.071060,-0.016128,0.007269,0.012176,-0.006736,-0.067114,0.094706,0.041225,-0.083567,-0.071064,0.104815,0.015960,-0.014248,0.078534,0.028728,0.041042,0.079334,-0.069949,0.108367,-0.062151,-0.085917,0.022903,-0.011474,0.057065,-0.027193,0.015725,-0.037879,0.081738,0.000736,0.012841,0.084310,0.097218,0.095685,-0.097772,-0.049421,-0.021715,-0.020644,0.000000,
0.049529,0.036812,-0.008225,0.002369,0.021426,0.077795,0.051821,-0.058634,-0.051227,0.023241,-0.010115,-0.072448,-0.096788,0.006126,-0.037451,-0.058184,0.010462,0.088976,0.077272,0.050653,-0.083784,0.048667,0.051722,0.024994,-0.024910,-0.001741,-0.062706,-0.022526,-0.016461,-0.014166,-0.099519,0.026882,-0.081819,-0.074783,0.032550,-0.081858,0.100856,0.087314,-0.040164,-0.025592,-0.084831,-0.001982,0.009956,-0.054856,0.031358,-0.003849,-0.037840,-0.008773,-0.096932,-0.070443,0.013237,0.088216,-0.067670,0.055769,0.000788,-0.043023,-0.008231,0.047943,0.011897,0.088522,-0.027383,-0.075257,0.090364,-0.028560,0.054963,0.070996,0.017710,-0.090419,-0.098174,0.039049,0.016297,0.058186,-0.096481,-0.022162,0.086400,0.044166,0.074830,0.078512,-0.032860,-0.068098,-0.053772,0.025505,-0.048054,-0.005595,0.007622,0.053798,0.055770,0.057074,0.004064,0.048517,-0.055157,-0.048376,-0.022847,-0.066467,0.089200,-0.015324,0.029072,-0.011465,-0.001368,-0.053299,0.000000,
-0.014324,-0.096979,-0.047821,0.076956,-0.093795,0.007646,0.015931,-0.095711,0.019531,0.038588,0.072428,0.012138,0.078168,-0.002081,0.031989,0.029521,-0.079854,-0.030489,-0.055746,0.078751,0.040142,-0.050936,-0.018300,0.018897,-0.087192,0.002824,0.039547,0.012530,-0.009201,0.064290,0.043499,-0.097089,0.058851,-0.078873,0.051139,0.084205,0.027429,-0.042612,-0.059595,-0.051900,-0.025461,-0.047076,0.092129,-0.043135,0.041519,-0.092733,0.043114,0.076335,-0.071687,-0.025514,0.023834,-0.101676,-0.070035,0.027594,0.086461,-0.029874,-0.008137,-0.096533,-0.095985,0.086968,0.077573,-0.037451,-0.039542,-0.006474,0.038234,-0.078722,-0.055392,-0.040397,-0.043526,-0.011467,0.067546,0.021834,-0.097825,0.084531,0.080519,0.023743,0.042662,0.037383,0.074886,-0.096180,-0.044019,-0.021045,-0.026656,-0.054913,-0.103210,-0.082708,-0.015531,0.084887,0.066298,0.024277,-0.068750,-0.047729,0.009633,-0.101134,-0.004565,0.020335,0.090409,-0.033670,0.098158,0.007544,0.000000,
-0.072964,0.101281,0.086698,-0.079016,-0.058009,0.081089,-0.061531,0.090703,-0.047713,-0.016727,-0.028707,0.086671,-0.033816,-0.036303,0.046751,-0.068419,0.040141,-0.049256,-0.142974,-0.056629,0.019180,0.112750,-0.095899,-0.015762,0.026316,0.037761,0.095348,-0.080409,-0.024447,0.023123,-0.080161,0.071685,-0.095417,0.062399,0.010982,-0.028405,-0.045376,0.118354,0.089656,0.067193,-0.060631,0.010418,0.074374,0.017637,0.066207,-0.062018,0.078363,0.027518,-0.089719,-0.025923,0.088385,0.004364,0.022441,-0.039640,-0.043640,0.017325,0.061788,0.011825,-0.006168,0.005785,-0.036120,-0.013157,0.005004,-0.079929,0.086548,-0.036949,0.001053,-0.001438,0.084460,0.124391,0.029430,0.049667,-0.045675,0.057285,-0.067637,0.054976,-0.032313,-0.000547,0.070937,0.066403,0.022605,0.070498,0.048124,-0.017680,0.075129,0.041201,0.029507,-0.034892,-0.048396,-0.049648,0.050878,-0.048154,0.057812,0.113935,0.084675,-0.073625,0.028503,0.070233,-0.090832,0.063912,0.000000,
-0.075955,-0.086137,-0.042389,-0.037613,-0.041344,0.014692,0.038740,0.028188,0.069043,-0.077215,-0.094953,-0.093734,-0.054963,-0.058676,0.030698,-0.072366,-0.086683,0.039503,-0.063629,0.010456,-0.090119,0.024094,0.062487,-0.098030,0.034015,-0.052427,0.049217,0.089941,-0.084362,0.037405,0.067534,0.076908,0.075526,0.019667,-0.006286,0.020604,-0.059618,-0.033742,-0.015503,-0.077123,-0.018123,-0.026025,-0.048720,-0.030714,-0.099593,0.095300,0.035426,0.058190,-0.085124,-0.097901,0.074367,-0.028391,0.001362,0.036392,-0.007492,-0.003312,0.045661,0.079888,-0.027868,-0.085376,-0.069144,0.057221,0.008696,0.085624,-0.049246,-0.094752,0.031055,-0.056416,-0.059786,0.048225,-0.005645,-0.008539,0.083613,0.073153,-0.081692,-0.105834,-0.063467,-0.077642,-0.066265,0.067465,-0.066540,0.077498,0.017331,0.004427,0.003350,0.007692,0.032176,-0.081329,-0.001739,0.055238,0.085562,-0.019115,-0.080879,0.031932,-0.091495,0.089133,0.061462,0.031214,0.013660,0.072693,0.000000,
-0.037382,-0.073117,-0.055279,0.074414,-0.049979,-0.053892,0.021904,-0.045883,-0.004233,-0.048685,0.021129,-0.018036,0.013194,0.035909,-0.071325,-0.034095,-0.033159,0.105649,-0.082202,0.004748,0.034154,-0.076494,-0.070992,-0.011712,-0.076661,0.053025,0.092141,-0.000183,0.012245,0.026352,0.033260,-0.000698,-0.039348,-0.061833,-0.012349,0.079075,-0.071148,0.112371,0.050707,-0.041351,0.042697,0.027903,-0.039291,-0.017528,-0.010385,0.035300,0.089097,0.002264,0.065027,0.053919,-0.086648,0.106827,0.027971,0.083146,0.090564,-0.096834,-0.076794,-0.011383,0.032134,-0.015915,-0.065153,0.086835,-0.057183,0.045398,0.100139,-0.083095,0.060225,0.022401,-0.031394,0.032289,0.022326,0.051188,-0.049687,0.090655,-0.047296,-0.072878,-0.014392,-0.088532,0.032514,0.006732,-0.057128,-0.039024,0.064539,-0.026574,-0.017783,0.013377,0.035269,-0.060079,-0.028802,-0.065852,0.096396,0.034703,-0.044856,0.092111,-0.015879,0.006883,0.012939,-0.002634,0.094669,0.043317,0.000000,
0.024860,-0.024733,0.023016,-0.072811,-0.034574,0.085700,-0.098420,0.022236,-0.036856,0.068399,-0.062464,0.016091,-0.028829,0.074270,-0.021251,-0.073025,0.010933,0.100716,0.008890,0.001308,0.074845,0.068505,-0.012821,-0.036478,-0.095696,0.048091,0.117167,-0.038220,-0.044946,0.017242,-0.009239,0.101845,-0.001731,-0.003012,-0.108116,0.030522,-0.065102,0.059105,0.082420,0.053861,0.004562,-0.019024,-0.044758,0.090304,0.083234,-0.000405,0.112398,0.120496,0.057491,0.051404,0.039590,0.021243,0.051082,0.087940,-0.002297,0.031209,-0.025131,0.016411,0.058079,0.062193,0.089747,0.088741,-0.024006,0.091059,0.109433,0.083105,-0.080854,-0.035210,-0.083035,0.043871,0.063852,-0.068347,0.034668,0.019623,-0.093105,0.011509,0.028853,-0.048501,-0.057347,0.059119,-0.059051,0.018844,-0.014362,-0.041590,-0.019691,-0.063460,0.042666,-0.001478,-0.089426,-0.068540,-0.011609,-0.027023,0.049127,0.122294,-0.072173,-0.001467,0.086889,-0.048174,-0.078049,0.026672,0.000000,
-0.008116,-0.000392,0.062826,-0.085566,-0.059827,0.088231,-0.070205,-0.008726,0.046427,-0.048677,-0.077546,-0.070958,-0.074416,-0.104204,-0.032085,-0.092825,-0.036001,0.022421,0.052708,0.064602,0.085362,0.025979,0.062265,-0.026089,-0.064293,0.050185,0.061209,0.035199,0.046533,-0.025128,0.073563,0.065228,-0.043510,0.073492,0.013200,0.003408,-0.042814,0.105301,0.010541,0.035834,0.066991,-0.014555,0.085895,-0.059193,-0.009770,0.008087,0.007194,-0.055453,0.095428,-0.056113,0.072177,-0.016897,0.063568,-0.058943,-0.039966,0.026364,0.065428,-0.008037,0.037501,-0.055161,0.054840,0.013032,-0.022784,0.049236,-0.011150,-0.090561,-0.028365,0.049363,0.095732,0.109238,0.049020,-0.061713,0.087249,0.048234,0.017774,-0.053634,-0.032505,0.025798,-0.014250,-0.028250,-0.120217,0.106557,0.033561,-0.027713,0.006814,0.040318,-0.060305,-0.003993,0.088265,-0.041326,-0.087401,-0.059195,0.079966,0.066594,0.069022,-0.035342,-0.046495,-0.088901,0.006899,-0.021615,0.000000,
0.079408,-0.061048,-0.063543,0.040554,-0.036486,-0.025808,0.099759,0.046333,-0.099669,-0.011539,0.003147,0.082665,-0.086455,0.047788,-0.112679,-0.098304,-0.068218,-0.112402,0.039536,0.090602,-0.043884,-0.092643,-0.008603,-0.097673,0.067843,0.014458,0.071972,0.042422,0.035757,0.033696,0.092887,-0.079153,-0.061152,0.076907,0.024231,0.091700,0.118562,0.019523,0.045200,0.049106,0.039264,-0.091769,0.013281,-0.068434,0.012908,0.054744,-0.049534,0.069784,0.089036,0.028789,-0.072342,-0.014101,0.061194,0.002191,0.070952,0.007236,-0.062110,0.065256,0.033093,0.055212,-0.076470,-0.092894,0.066977,0.034983,0.056327,-0.029083,-0.046015,-0.019117,-0.051939,0.045862,0.066341,0.086675,-0.001799,-0.107231,-0.035869,0.006953,-0.042818,0.042707,-0.042361,0.082633,0.168852,0.082429,0.016992,-0.031953,-0.041638,-0.068211,0.044978,-0.008774,0.040039,0.019469,-0.046583,-0.002129,-0.032713,0.000614,-0.066200,0.001851,0.076224,0.035771,-0.062115,0.083433,0.000000,
-0.038232,0.089381,-0.020390,0.096464,0.058807,-0.008266,0.067377,0.084937,-0.078216,0.017975,0.068455,-0.010355,0.063297,0.078004,-0.079312,0.054525,-0.091882,0.062611,-0.055294,-0.031124,0.024457,-0.086108,-0.003447,-0.034985,0.031640,-0.005927,-0.090878,-0.024689,0.015598,0.054755,-0.057092,-0.060797,0.045052,-0.060027,-0.039526,-0.099951,-0.024090,-0.079738,0.015667,0.080980,0.044409,-0.083368,0.089640,-0.089366,-0.038369,0.056104,0.047450,0.055109,-0.023798,-0.087573,-0.097911,0.008194,-0.096743,-0.065919,0.065350,-0.015395,0.034902,-0.078671,0.015851,0.090108,0.018180,0.017639,-0.061711,-0.072305,0.058297,-0.089528,-0.006126,-0.080129,0.007028,-0.097989,0.033105,0.000170,-0.065757,-0.037235,-0.039962,-0.044889,-0.024937,0.018424,-0.057537,0.025238,-0.082402,0.094174,-0.059936,0.042522,-0.068449,-0.068256,-0.014679,-0.056967,-0.027978,-0.043498,-0.027967,-0.077305,0.097529,0.056400,-0.035724,0.072617,-0.044553,-0.081690,0.032030,-0.034411,0.000000,
0.070723,-0.022263,-0.081420,0.084323,0.022446,0.056687,-0.009671,-0.064317,0.032193,0.010818,-0.066209,0.047943,-0.093642,-0.078921,-0.037161,-0.093732,-0.055947,-0.007994,-0.052048,0.043578,0.052311,0.114905,0.031062,0.023193,-0.019271,-0.042186,-0.059416,-0.091339,0.042550,-0.063298,-0.041023,0.063503,-0.061817,0.036973,-0.027403,0.020635,-0.082698,0.099892,-0.069326,-0.089040,0.074675,-0.086038,0.094069,0.044417,0.038595,-0.012384,0.024465,0.050224,-0.047024,0.073606,0.061462,0.037132,0.061539,-0.013086,-0.028279,-0.077082,-0.038798,-0.095765,-0.031448,0.052319,0.129172,-0.058518,-0.083129,0.082537,-0.004921,-0.013574,0.062747,0.091491,0.037871,0.051196,-0.021876,0.002520,0.041449,-0.081279,-0.096805,0.076224,-0.066434,0.052551,0.069714,0.066314,-0.006067,0.040741,0.052828,0.026168,0.003538,-0.083359,0.062215,0.011140,0.060239,-0.092028,-0.023539,-0.060196,0.026046,0.105574,0.019007,0.085004,0.073474,-0.065826,0.095993,0.005554,0.000000,
0.089467,0.026728,-0.017074,0.084893,-0.073993,0.013813,-0.014008,0.035568,-0.028690,0.088172,-0.005227,0.045576,0.043063,0.091985,0.038353,-0.099686,-0.069020,-0.084214,-0.103438,-0.103298,0.006069,0.104537,-0.064721,0.050235,-0.045627,0.077469,0.078016,0.046464,0.088097,-0.075423,-0.084914,-0.041910,0.020268,0.088405,0.062920,0.031258,0.016281,-0.045330,0.107937,-0.080199,-0.063130,0.058728,0.084251,0.026282,-0.001747,-0.011881,0.020565,-0.039857,0.098865,0.099873,-0.038700,0.087888,-0.010011,-0.066108,0.025093,-0.019112,0.089691,0.006930,-0.021934,-0.079436,0.078874,0.080182,0.014065,-0.008761,-0.020732,-0.020374,0.095965,-0.009373,0.009124,-0.083959,0.024381,-0.042845,-0.016894,-0.044518,0.092607,0.076098,-0.028165,-0.024526,0.036488,0.037631,-0.015642,0.053331,0.023631,0.044326,-0.047143,-0.061300,0.046495,-0.003902,-0.043576,0.071781,-0.004322,-0.059421,0.009892,-0.036313,-0.034536,-0.082322,0.079824,0.095118,-0.084360,0.062556,0.000000,
0.022872,-0.046932,-0.029330,0.017046,0.021215,0.078488,0.095555,-0.002310,0.094063,-0.065538,0.000847,-0.088930,0.047904,0.013695,-0.066875,-0.076303,-0.026411,-0.044177,-0.040751,-0.087094,-0.070100,0.076589,-0.049183,0.034313,0.006811,-0.013649,0.026278,0.075300,0.031160,0.010841,0.081172,0.001871,0.021980,0.097502,-0.078382,0.072649,-0.048038,-0.011559,-0.064271,0.059601,-0.086793,-0.050511,0.010913,-0.038272,0.010745,0.091824,-0.094835,-0.071394,-0.077762,0.095625,0.024270,-0.079299,-0.093447,0.067743,0.085449,-0.060512,0.019222,-0.024826,0.059309,-0.055957,0.061838,0.093358,0.060562,-0.017110,0.006634,0.043148,-0.057653,-0.052963,-0.097823,0.064217,-0.052630,0.085920,-0.025987,-0.043345,0.050914,-0.016118,-0.074282,0.010742,-0.052927,-0.072368,-0.063095,0.028276,0.002031,-0.040530,0.029325,-0.037629,-0.077181,0.034343,-0.034053,-0.035230,0.065504,0.068366,-0.105080,0.079362,0.089429,-0.072112,-0.099701,-0.084445,-0.026548,-0.004496,0.000000,
0.027560,0.023850,0.019374,-0.078068,0.096248,0.086142,0.048721,0.021841,-0.055840,0.007308,-0.071363,0.091913,-0.088810,0.085111,0.094148,-0.048411,-0.089232,0.035278,-0.076751,-0.092264,-0.060246,0.070692,-0.062678,-0.040022,-0.040555,0.071073,0.038747,0.057320,-0.018682,-0.059130,0.036041,0.040346,0.082770,-0.093703,-0.073377,0.065609,0.025867,0.066390,-0.025287,0.099712,0.039081,-0.038706,-0.048310,0.026273,-0.002463,-0.048466,-0.053601,0.033694,0.049363,0.095240,-0.042199,-0.059037,-0.063042,-0.067741,0.098781,-0.048905,-0.047041,0.073364,0.079522,-0.091519,-0.011023,0.030049,0.015293,-0.056852,-0.080585,-0.072158,0.033309,-0.046557,-0.090927,0.098590,0.045823,-0.029835,0.015957,-0.035537,-0.065921,-0.092392,0.065186,-0.092346,-0.075427,0.083444,-0.062979,-0.033575,0.000462,-0.098752,-0.090796,-0.081115,-0.015075,-0.036192,0.074268,0.064327,0.097291,-0.086530,-0.047648,0.068121,0.034666,-0.065140,0.074975,-0.051074,0.094954,-0.079813,0.000000,
0.058140,-0.000010,-0.086558,0.051743,-0.036701,0.007120,-0.030530,0.002478,-0.025594,0.050430,-0.008077,0.074920,0.040394,0.007521,0.047418,-0.033639,-0.070669,-0.060885,-0.005686,-0.057916,0.021493,-0.004153,-0.089919,0.057229,0.061968,0.084948,0.009883,-0.007321,0.058817,-0.086721,0.006182,0.070447,0.069206,0.011783,0.001783,0.035733,0.126909,0.001676,0.084370,0.090968,-0.050693,0.098526,-0.020053,0.021514,0.089064,-0.047254,0.052213,-0.009007,-0.056588,-0.006088,0.085482,0.066605,-0.045045,0.096478,0.025839,0.085354,0.101024,-0.029113,0.079836,-0.014823,0.021987,0.009070,0.001376,-0.007759,-0.086143,0.012415,0.091759,0.038515,-0.092400,0.023772,-0.007280,0.029477,-0.085982,0.021875,-0.071468,0.019609,0.068667,0.070008,-0.010471,0.088830,0.097974,-0.051834,0.052269,0.054098,-0.072861,0.070358,0.096372,0.054757,-0.015924,-0.071489,0.091436,-0.047548,0.033721,-0.085460,0.061688,0.020076,0.095198,0.054238,-0.095504,0.079021,0.000000,
-0.080811,-0.047794,0.051632,-0.054425,0.026222,0.010300,0.007084,-0.054314,0.069986,0.014374,0.037127,0.011644,-0.049747,-0.037587,0.066566,-0.087359,-0.034562,-0.091539,-0.059783,0.013439,-0.022781,0.033324,0.076197,0.021034,0.094973,-0.000264,0.096475,0.016134,-0.002567,0.027949,-0.078847,0.081547,0.091499,-0.087947,-0.059516,0.079034,0.025136,-0.036152,-0.049824,-0.022913,-0.018822,0.092249,-0.060802,0.014064,0.028344,-0.049603,-0.006235,-0.018078,0.076299,0.071548,-0.004824,-0.051246,-0.057411,-0.042575,0.086751,0.081291,0.019884,-0.093173,0.031935,-0.018586,0.055911,0.051976,0.083893,0.007282,0.007653,0.000725,0.069087,0.075510,0.047117,-0.019996,-0.029032,0.092669,-0.051729,0.017201,0.031441,0.051783,-0.060653,-0.019306,-0.002921,-0.009121,-0.085825,0.043150,-0.076460,-0.025252,0.030652,0.078631,-0.017392,-0.055367,-0.044592,-0.000920,-0.054669,0.024706,0.045211,0.094376,0.084095,-0.020437,0.042504,0.013120,0.047411,-0.045455,0.000000,
0.093922,0.000665,0.063336,0.074167,-0.021182,0.076627,-0.025879,0.049747,-0.015520,-0.079083,-0.025493,0.037974,0.079880,-0.081600,-0.058030,0.052119,-0.051086,0.005211,-0.069758,0.006317,-0.048386,0.022333,0.039430,0.019178,-0.078644,0.074977,0.084174,-0.089664,0.081903,-0.086190,0.047006,-0.005906,-0.007992,-0.048691,0.078753,0.016161,-0.006953,-0.003537,0.072480,0.099089,-0.056968,-0.088695,-0.067652,-0.054295,-0.081698,-0.036089,-0.038686,-0.000715,0.028519,0.064235,-0.065980,-0.071650,-0.043558,-0.073697,0.005386,-0.075833,-0.004612,-0.013685,-0.077438,-0.045148,0.043711,-0.028668,-0.088260,0.081356,-0.031178,0.012052,0.080417,0.049793,-0.080829,0.088329,-0.027875,0.025509,0.044519,0.034905,0.068350,-0.045128,0.074318,0.063568,-0.087704,-0.037283,0.086419,-0.074223,-0.090484,0.061759,0.035238,0.010964,0.079742,0.004924,0.097507,-0.066361,-0.085943,-0.021746,0.097216,-0.085500,0.041256,0.025606,-0.042344,-0.082010,0.041873,0.037502,0.000000,
-0.013495,0.038060,0.054685,-0.070432,-0.086443,0.005670,-0.014391,-0.026723,0.026320,-0.071586,0.097171,-0.035855,-0.055859,-0.039782,-0.099854,-0.086531,0.059996,-0.010250,-0.102358,0.006311,0.077879,0.028097,-0.049832,0.058474,-0.034438,-0.046291,0.007019,-0.024300,0.096539,-0.017947,-0.090038,-0.020392,0.036685,0.043241,-0.095622,-0.070442,-0.087445,0.029352,-0.075495,0.044383,-0.028530,0.032864,0.021614,-0.015958,-0.009025,0.030740,-0.052245,-0.005913,0.045766,-0.089254,-0.019908,0.050097,-0.021980,0.040141,0.051558,-0.014498,-0.038668,0.048399,0.005633,-0.077323,0.086290,0.128281,0.085586,-0.055164,0.119633,-0.083107,-0.075778,0.068516,-0.070520,0.114191,0.071646,-0.067211,0.061205,-0.011990,-0.026001,0.018144,0.065190,-0.068061,0.089079,0.070069,-0.108215,0.073073,0.018531,0.009531,-0.008006,0.015650,0.027948,0.093454,0.014097,0.049616,0.011856,0.030289,0.011321,0.004897,-0.075159,0.096123,-0.054104,0.049206,0.023072,0.064849,0.000000,
-0.094644,-0.009329,-0.095839,-0.078714,0.035313,-0.023624,0.066792,0.074601,0.000245,-0.029694,0.069365,0.095346,0.012088,-0.083454,0.041808,-0.016691,-0.073680,0.021527,0.002338,0.001482,0.099488,0.050758,0.063129,0.000831,-0.019773,0.037498,-0.074821,0.094499,0.012429,-0.092951,-0.057745,0.048221,0.023078,0.049392,-0.098614,-0.000493,0.059583,0.055242,0.005431,-0.098871,0.087393,0.038410,0.039063,0.060271,0.059102,-0.011296,0.066236,0.067956,0.024770,-0.077056,0.069867,-0.048992,0.085281,-0.062285,-0.006891,-0.038665,-0.054755,-0.032982,0.064450,0.033038,-0.009223,-0.080315,-0.055399,0.056793,-0.046713,-0.077109,-0.054848,-0.033438,-0.044440,0.052921,-0.001197,0.094390,-0.092057,-0.050210,0.033220,0.061312,-0.041064,0.040001,-0.055087,-0.060565,0.054685,-0.006089,-0.073180,-0.003868,0.088010,0.022831,-0.020012,-0.018115,-0.059598,0.056883,0.001652,-0.051661,0.005794,0.030909,0.004234,-0.008178,-0.094004,-0.003015,-0.031991,-0.001280,0.000000,
-0.070413,0.037307,-0.061915,-0.032314,-0.045974,-0.028779,0.001425,-0.032505,-0.043286,0.016070,0.042029,-0.060923,0.053309,0.008878,0.059342,0.009674,0.111403,-0.073366,-0.010427,-0.122507,0.042916,-0.021906,-0.020502,0.089293,0.093619,-0.025076,-0.032002,0.054645,-0.044296,-0.047026,-0.075202,0.110709,0.005931,0.019552,-0.083444,0.046617,-0.138081,-0.006950,-0.008180,0.058211,-0.017277,-0.007837,0.069909,0.035210,0.081241,-0.034079,0.062432,0.003767,-0.007245,0.021369,0.096412,0.028587,0.017733,-0.044794,-0.060443,0.057442,-0.025825,-0.033685,0.021708,0.017071,0.011323,0.112008,0.061188,0.024364,-0.021656,-0.075086,0.086955,0.018687,-0.090783,0.008037,-0.000692,0.026996,0.081150,0.010592,-0.012051,0.074306,0.011702,0.032219,-0.082168,-0.035311,-0.114155,0.034892,-0.076816,0.036661,-0.048632,-0.084068,0.006018,-0.047126,-0.059867,0.044617,0.028794,0.015504,0.072164,-0.018026,0.010392,0.096495,-0.043260,0.038328,0.084086,-0.013976,0.000000,
0.071539,-0.036750,-0.019965,0.025492,-0.015461,-0.036120,-0.019496,0.014481,-0.055236,-0.086726,-0.078370,0.087391,0.002683,0.033358,-0.107037,-0.014633,-0.087185,-0.018676,0.080825,0.057534,-0.046590,-0.064384,-0.081824,-0.059678,0.034200,-0.059214,0.045262,-0.035920,0.092648,-0.024193,-0.017797,0.048747,0.070102,0.072199,0.060390,-0.094552,0.050788,-0.062192,0.060629,0.067298,-0.019073,0.022920,0.010490,0.043937,0.067068,0.028943,-0.043973,-0.006058,0.011549,-0.082629,0.032869,-0.073421,0.054183,0.078954,0.003208,0.083732,-0.008481,0.062885,0.049888,-0.083334,-0.089650,-0.033406,0.039803,-0.018608,-0.030011,0.055877,0.089612,0.031816,0.029640,0.040935,0.001856,-0.090060,-0.109781,-0.103455,-0.087939,0.065343,-0.016033,-0.069317,0.011087,0.000525,-0.062624,-0.105431,0.012714,-0.012159,-0.046064,-0.066888,-0.026461,0.086932,-0.080033,-0.052010,-0.042397,0.081165,0.000165,0.058100,-0.009924,-0.015644,0.056834,-0.049023,0.059472,0.087479,0.000000,
0.040713,0.061719,-0.077497,0.092260,-0.060300,0.056259,0.031216,0.007317,0.025901,-0.098112,0.095506,-0.006445,0.089314,0.002448,-0.040763,0.062591,-0.001904,-0.063507,0.012565,-0.099537,-0.061750,-0.081263,0.005136,-0.055053,-0.002181,-0.076040,-0.086156,-0.011550,0.011781,0.071959,-0.034192,0.095130,-0.071509,0.034619,-0.089965,0.090292,-0.037743,0.055543,0.004817,-0.040213,-0.023840,-0.037358,0.061149,0.073036,0.095172,-0.023784,-0.030147,-0.050196,-0.006842,0.024185,-0.008231,-0.064616,0.007376,-0.002971,-0.079988,-0.027199,-0.004092,-0.097122,0.013907,0.027460,-0.009374,-0.013818,0.002397,0.025489,-0.047912,-0.009307,0.057423,-0.029323,-0.000141,-0.092492,-0.076119,-0.009623,-0.034552,0.097229,-0.021397,-0.083448,0.085271,-0.064639,0.082769,-0.010154,0.019636,-0.098060,0.090742,-0.001125,-0.050146,-0.071364,0.018192,-0.094415,0.074139,0.054805,0.086676,0.089042,-0.058917,-0.027079,0.061257,0.063991,0.097881,-0.041323,0.014376,-0.003395,0.000000,
0.051586,-0.054998,0.090531,-0.029604,0.049672,0.069448,-0.099876,0.012636,-0.068569,0.042138,0.085636,-0.037789,-0.067762,-0.056831,0.071883,-0.016201,-0.080439,0.075844,0.065561,-0.010824,0.005505,0.006273,0.096653,0.051994,0.018019,0.002230,0.026198,-0.073876,0.054217,0.042014,0.011577,0.052038,-0.019285,-0.091402,-0.089232,0.094280,-0.032985,-0.079008,0.091849,-0.076696,0.075261,0.083065,-0.018703,0.058230,0.076538,-0.094090,-0.059531,0.007001,0.031351,-0.068263,-0.082344,0.089831,-0.053136,-0.103548,0.037923,-0.051421,-0.040905,-0.035073,0.092308,0.038055,0.091981,-0.041347,0.072484,-0.081147,0.054553,0.004093,0.003734,0.079165,0.007659,-0.048535,-0.061160,0.016203,-0.039459,0.044555,-0.083518,-0.073205,0.081209,-0.038711,-0.104562,0.071545,-0.027134,-0.005415,0.055953,0.033382,-0.101948,0.011935,0.096891,-0.005778,0.072720,0.087607,0.030847,-0.098435,0.079818,0.072976,0.029977,-0.008234,-0.068879,0.016040,-0.034739,0.089613,0.000000,
-0.109226,0.022059,-0.002110,0.000262,-0.012431,0.066668,-0.085864,0.032962,-0.066588,0.039176,-0.008490,-0.001746,0.056390,-0.062049,-0.099796,-0.046649,0.112214,-0.061623,0.020496,-0.071981,0.006980,0.060539,-0.035256,-0.062526,0.033843,0.060391,0.064831,-0.003483,0.010663,0.041986,0.031868,-0.035532,0.072084,-0.013385,-0.066159,-0.030170,-0.037470,-0.026802,-0.063655,0.055974,0.073285,-0.123174,0.072839,-0.058766,0.023620,0.092547,-0.060846,-0.018625,0.028823,-0.062551,-0.038920,-0.055417,0.041330,0.056754,0.030936,-0.017797,0.089781,0.078052,-0.054402,0.057204,0.006218,0.062347,0.010864,0.043768,-0.023001,-0.080601,-0.057031,-0.066078,-0.043120,0.048374,0.003816,0.018949,0.071030,0.085664,0.080699,0.067436,0.026490,0.025439,-0.057921,0.001676,-0.041279,-0.054657,0.084658,-0.065314,0.072376,0.030583,-0.054316,0.029310,-0.044063,-0.078885,0.028733,0.048810,-0.037282,-0.032225,0.075521,-0.036762,-0.067119,-0.086053,0.057803,0.072038,0.000000,
0.084400,-0.083374,0.011992,0.019450,0.009893,0.028752,-0.092373,-0.089956,-0.041462,0.005632,0.007575,-0.032773,-0.099872,0.037899,-0.089247,0.023743,-0.052599,0.076735,0.053587,-0.083962,0.078321,-0.025829,-0.097174,-0.020749,-0.075481,0.020857,0.032899,-0.044115,-0.028834,0.029476,-0.054750,0.041531,-0.074053,0.058443,-0.075689,-0.083469,-0.005843,0.019835,-0.076647,0.079492,-0.050144,0.040318,-0.038702,0.066874,-0.048207,-0.069507,-0.089109,-0.044303,-0.054553,0.045621,-0.066008,0.003933,-0.018372,-0.049989,-0.018145,0.055178,-0.052992,-0.083793,0.068079,-0.058109,0.085440,0.007768,-0.011822,0.093792,0.031641,-0.120605,-0.095856,-0.102937,-0.073796,0.044747,0.014871,0.051818,-0.102687,0.057506,0.088650,0.033952,-0.023182,-0.086717,0.085389,0.009811,0.000956,0.016389,0.060409,-0.126091,0.039620,-0.088223,0.092754,-0.078044,-0.022053,0.002521,0.022732,0.024922,0.020872,0.031035,-0.067306,-0.005908,0.027882,0.070828,-0.081409,-0.039474,0.000000,
-0.067034,-0.051676,-0.058441,-0.015262,0.036133,-0.019448,0.020039,-0.023643,-0.096228,0.012718,0.004379,-0.067911,-0.096290,0.024690,-0.027517,0.020028,-0.021858,-0.024623,-0.040106,0.096092,-0.089063,-0.024828,-0.027255,-0.035197,0.050702,0.088912,0.082474,-0.048661,-0.043634,0.039699,0.053678,-0.083844,-0.045339,-0.047137,-0.009733,-0.035153,-0.077301,-0.016789,-0.023119,0.007676,-0.038115,-0.046678,0.089285,-0.028817,0.059562,-0.065408,-0.043350,0.040692,0.019745,-0.075408,0.077307,-0.027224,-0.000028,-0.013616,0.076374,0.024208,0.046593,-0.021751,0.099704,0.038916,0.049361,-0.019402,-0.082782,0.072264,-0.089053,-0.098861,0.009499,-0.019330,-0.072047,0.076975,0.010084,-0.046345,0.064306,0.035403,-0.078079,-0.016529,-0.086161,-0.055727,0.018027,0.027704,-0.038677,-0.035206,-0.085395,-0.061822,-0.006355,0.003593,0.056263,0.066433,0.087269,0.019446,-0.073992,-0.028275,-0.087999,-0.007690,0.052366,0.011442,0.045665,0.084430,0.052026,-0.020793,0.000000,
0.080174,0.045376,-0.074215,0.014371,0.048232,0.024070,0.096268,-0.069121,0.014082,0.087164,-0.062714,-0.065455,0.067759,0.037381,0.066201,-0.017366,0.055288,-0.094832,-0.066000,-0.003873,-0.081010,-0.010539,-0.037312,0.089141,-0.029876,0.034801,0.012368,0.096352,0.001043,0.056813,-0.067861,-0.081380,0.051766,0.062128,-0.065621,0.080110,0.066523,-0.064623,0.038701,0.089292,-0.036452,0.064107,-0.041537,-0.093859,-0.079016,-0.033626,0.084551,0.033448,0.086224,0.050680,-0.001422,-0.066857,-0.095788,-0.044084,-0.054018,0.090001,-0.034707,-0.012086,0.018138,0.082090,-0.016069,0.047515,-0.068991,-0.095273,-0.022055,0.044421,0.062642,0.026239,0.075792,-0.066893,0.008519,0.083201,-0.072281,0.059711,-0.081004,0.055250,0.045986,0.087357,-0.021569,-0.005499,-0.040353,0.084603,-0.013412,-0.041171,-0.003931,0.039906,-0.050723,-0.079631,-0.024345,0.014450,-0.000294,-0.036750,0.052556,-0.017122,0.077486,-0.058761,0.096435,-0.009312,0.070239,0.040261,0.000000,
-0.071594,0.083725,-0.035008,-0.067262,0.043764,0.048972,-0.050296,-0.025519,0.087429,-0.082813,0.014301,0.000609,-0.079841,0.033130,-0.096652,-0.002981,0.016967,0.082364,-0.067584,-0.122833,0.005310,0.104622,-0.057600,0.100622,0.055664,-0.011411,0.030396,0.082821,0.001617,0.013566,0.008213,0.029337,-0.086797,-0.057753,0.076073,0.059572,-0.061974,0.124948,-0.020637,0.054558,-0.047730,0.065156,0.061255,0.034467,-0.005980,0.068123,0.067295,0.079899,-0.037230,0.002789,-0.023862,-0.019902,0.061199,0.093018,0.073650,-0.027915,0.064751,-0.007417,0.094641,-0.098948,0.062630,-0.051655,0.047652,0.071838,0.110314,-0.080721,0.008811,0.036789,-0.034284,0.123642,0.054945,0.049498,-0.031765,0.088552,-0.050940,-0.065941,0.003907,-0.009206,0.068449,0.041245,-0.020515,0.002602,0.091412,0.054895,-0.077708,0.085851,0.019607,0.034864,0.039080,0.038036,0.010754,-0.014142,-0.001554,-0.039067,-0.003849,-0.056136,0.059676,-0.061051,0.086928,-0.088307,0.000000,
0.083766,0.020642,-0.094264,0.029985,-0.064381,-0.047034,0.005264,-0.006097,0.024679,0.094696,-0.091711,0.095573,-0.055451,-0.030894,0.056511,-0.041770,-0.011206,0.004185,-0.001378,-0.032088,0.101472,0.070375,-0.091250,-0.057378,0.007880,-0.003831,0.005369,0.032887,0.041967,-0.058044,-0.019949,0.057593,0.036238,-0.008972,0.034381,0.035736,-0.147757,-0.063024,0.020606,0.043271,-0.069783,-0.064064,-0.092613,0.018940,0.072480,0.088599,-0.071056,0.107272,-0.040052,-0.088071,0.064176,0.121414,0.033257,-0.024901,0.025135,0.046921,0.050680,-0.050364,0.003332,0.027526,0.052047,0.058885,0.022755,0.026509,0.089892,-0.086947,0.082742,-0.017977,-0.081494,0.098455,-0.077245,-0.098833,-0.002594,0.113868,-0.075761,0.035210,-0.040328,0.040893,0.069939,-0.016274,-0.138477,-0.039502,-0.050019,-0.074320,-0.042556,0.037922,0.022544,-0.080038,0.012719,-0.112113,0.077805,0.001905,0.120627,0.104300,-0.057340,0.077395,-0.085442,-0.085026,0.066987,-0.051314,0.000000,
-0.073249,-0.065002,-0.057653,-0.088378,0.012842,-0.085744,-0.027935,0.063002,-0.077106,0.067994,0.098985,-0.015228,-0.012049,-0.095082,0.092808,0.080120,-0.010720,0.059544,-0.088074,-0.067689,0.093965,-0.099292,-0.010549,-0.053328,-0.094407,0.016426,-0.043581,0.019706,-0.037344,0.033209,0.013216,-0.099339,0.063740,0.061825,-0.076560,0.029806,-0.047361,0.068690,-0.048090,0.062729,-0.063427,-0.053856,0.040703,0.027247,-0.045695,0.073530,0.019009,0.047800,-0.059297,0.024197,0.024169,0.058199,0.092274,0.063400,0.098292,-0.043820,-0.082381,0.017703,-0.001791,-0.014885,-0.080518,-0.003485,0.002940,0.061293,0.047979,0.016903,0.070356,-0.010722,0.080443,-0.090997,-0.002936,-0.044783,0.064163,-0.027949,-0.067611,-0.016863,0.000058,0.067302,0.055093,-0.090440,-0.042257,-0.048501,-0.005269,0.044432,-0.014549,0.091033,0.011018,0.055350,-0.024040,0.057972,0.039226,0.003700,-0.003334,0.044306,0.014122,-0.063049,-0.031025,-0.065596,0.023883,0.075024,0.000000,
-0.057411,0.033533,-0.077202,0.041193,-0.093768,-0.039278,-0.001145,-0.016964,0.056277,-0.039876,0.033146,0.043921,0.027331,-0.096907,-0.055449,-0.024530,-0.001672,0.038400,0.070356,0.020640,-0.068490,-0.099374,0.089567,0.000343,-0.088870,-0.027498,0.038348,-0.003144,0.065908,-0.017121,0.012556,0.093724,-0.088806,0.009946,-0.081400,-0.067383,-0.093638,0.049099,-0.019624,0.036307,0.011320,0.032622,-0.084010,-0.035463,-0.027386,-0.072632,0.042561,0.056762,-0.036169,-0.068346,-0.052056,-0.093229,-0.065090,-0.027546,0.016494,-0.047994,-0.081911,0.050515,0.079936,0.004741,-0.014222,-0.044233,0.032609,0.007984,-0.045723,0.068609,0.058909,0.073873,0.068986,-0.059338,0.091554,-0.001979,-0.091993,0.063388,-0.064317,-0.046965,0.019482,0.070985,0.016025,-0.085503,-0.068090,0.037090,-0.027414,0.027310,0.087195,-0.065168,-0.086355,-0.033540,-0.007745,-0.033660,0.097588,-0.059792,0.057931,0.038771,0.091975,-0.096249,0.073033,-0.031858,-0.035239,0.003335,0.000000,
0.058549,0.051055,-0.058005,0.023900,-0.004079,0.055390,-0.000073,-0.019747,0.046272,0.091623,0.053240,-0.046628,0.001365,-0.001448,-0.076068,0.084816,0.079423,0.061507,0.036945,-0.045062,0.076368,0.006015,0.080606,-0.055026,-0.097793,0.051621,0.058873,-0.094869,0.043431,-0.021367,0.040696,0.103086,0.080715,0.003586,0.029042,-0.092697,-0.082804,0.055182,0.058913,0.035643,0.058862,-0.012377,0.025825,-0.098131,-0.047944,0.045661,0.035424,0.063457,0.040403,-0.084495,0.033083,-0.006273,0.009659,-0.013687,0.087522,0.089565,0.044450,-0.038972,0.029655,0.034398,0.102056,0.033977,-0.094253,0.040178,-0.054945,-0.035697,0.065318,0.039461,0.094638,0.118852,-0.109966,0.002463,0.025174,-0.011717,-0.051582,0.100343,-0.036451,-0.092492,-0.098852,-0.054452,-0.067306,0.091713,-0.004325,-0.124629,0.069866,-0.023326,-0.036091,-0.002955,0.043520,-0.035721,0.035982,0.041106,-0.050440,0.106723,0.066266,-0.004759,0.064428,-0.029542,-0.021373,0.041782,0.000000,
-0.074179,-0.024210,-0.066537,-0.008576,-0.039498,-0.033070,-0.021855,0.076971,0.024596,-0.096582,-0.069241,-0.007789,0.033043,0.062232,0.091422,-0.067462,0.094490,0.067163,-0.079573,-0.082268,-0.078061,0.001946,-0.021682,-0.097707,-0.028402,0.062640,-0.007146,-0.079803,-0.065695,0.037333,0.031294,-0.043403,-0.081886,0.042475,-0.053409,-0.087595,0.091695,0.040206,-0.016965,0.014678,0.081223,-0.088869,-0.019894,-0.035410,-0.097137,0.084807,-0.094523,-0.040234,0.050767,0.090501,-0.026411,0.082831,-0.002042,-0.092416,-0.093212,-0.046465,-0.000610,0.081107,-0.042715,-0.015499,0.068362,-0.024653,0.043325,-0.008480,-0.038972,-0.064791,0.098157,-0.053711,0.010302,0.034727,0.018550,-0.008080,-0.019327,-0.042088,0.034558,-0.029162,0.037272,0.051507,0.035450,-0.047065,-0.068760,-0.027316,0.031976,0.010777,0.097752,0.067551,-0.046785,0.071841,-0.057009,-0.033754,0.074120,-0.073507,-0.027792,-0.082186,0.046406,0.071659,0.087909,-0.034858,-0.073943,0.052770,0.000000,
-0.064177,-0.025849,-0.082275,0.078005,-0.010048,0.035723,0.005841,0.025278,-0.043812,0.109663,-0.090680,-0.017158,-0.058228,-0.080216,0.044636,0.073391,0.078346,0.048963,0.021865,0.025629,-0.020871,-0.023378,0.029630,0.073782,0.066759,0.000417,0.125988,-0.071786,0.041490,0.085647,0.006245,0.075915,0.087877,-0.077443,0.047241,0.046356,0.004542,0.073372,0.072541,0.039241,0.056783,-0.104630,-0.097028,0.053136,0.099580,-0.029843,0.085089,0.010123,0.050165,-0.008130,0.048631,-0.013951,-0.053511,0.056695,-0.032231,0.074606,0.017318,-0.040762,0.096226,0.095525,-0.023959,0.074199,0.028686,-0.061418,0.039156,-0.126365,0.007633,-0.080384,0.085514,0.072718,0.063857,0.019390,-0.037598,0.063987,0.044042,0.065197,0.009733,0.099581,-0.061861,-0.089190,-0.020317,0.115717,0.024353,-0.068922,-0.080706,0.060506,-0.098347,-0.041223,0.055501,-0.077442,-0.060288,-0.043266,0.072607,-0.024502,-0.022783,-0.024049,0.054282,0.094110,0.006237,0.000437,0.000000,
-0.028177,0.037985,0.072155,0.023690,0.061791,-0.019536,-0.004928,-0.077297,0.043491,-0.055265,-0.015352,-0.120172,0.008552,0.001993,0.033733,-0.022008,0.026800,0.100992,-0.041532,0.030724,0.089390,0.091820,0.045364,0.059082,0.091284,-0.009822,0.096804,-0.041141,-0.031677,0.044905,-0.060253,-0.036626,0.005376,0.008240,-0.028579,-0.013398,-0.016040,0.109306,-0.035888,0.045195,0.007495,0.032488,0.066000,-0.009564,-0.020785,-0.039441,-0.036320,-0.032814,-0.024693,0.058446,0.030015,-0.024530,0.076502,-0.005751,-0.002622,0.038613,-0.070143,-0.010581,0.076276,0.064788,0.075249,0.006501,0.010089,0.064913,0.034328,0.016390,0.050669,0.032786,0.047044,-0.055078,-0.119672,-0.099089,0.065596,-0.057759,-0.078626,0.007034,-0.002607,0.031749,-0.042395,0.077480,-0.135965,-0.082780,0.078462,-0.086909,0.011197,0.011911,0.015695,-0.063165,0.010844,-0.101878,0.071864,0.005401,0.093230,0.076297,0.042567,0.035320,0.056395,-0.074877,0.075457,-0.021497,0.000000,
0.069209,-0.014694,0.046341,0.073843,0.018999,-0.014118,0.040788,-0.099648,-0.010262,-0.028229,-0.076584,-0.012832,0.023257,-0.105341,0.073781,0.056636,0.098661,-0.047245,-0.079238,0.052826,0.086018,-0.062448,-0.058667,-0.015294,0.085031,-0.015464,-0.095780,-0.041372,-0.057228,0.075394,-0.073143,0.067032,0.037359,-0.008928,-0.033256,0.055240,-0.064926,-0.035081,0.080405,-0.046666,0.002085,0.073078,-0.086487,0.016537,0.002774,-0.051656,0.072752,0.073483,-0.006552,-0.010756,0.062287,-0.033085,0.056614,-0.074755,-0.090098,0.066767,0.060173,-0.077738,-0.022118,0.042480,0.053419,0.059585,0.070085,-0.045767,0.021309,0.077759,-0.082066,0.056853,0.025299,0.010114,0.090917,-0.041536,-0.035569,-0.082147,0.084196,-0.081032,0.089431,-0.073586,0.049258,-0.049935,0.079440,-0.066954,-0.072727,-0.037170,-0.088433,0.086947,0.036973,-0.054314,-0.075604,-0.041217,0.006988,-0.053032,0.058110,-0.056028,0.029797,0.071999,-0.070899,-0.086083,-0.095642,0.018818,0.000000,
0.072781,-0.061087,-0.013468,0.062600,0.077593,0.079304,0.032026,0.034170,0.007342,0.096024,0.003569,0.028634,-0.007298,0.061748,-0.113781,-0.031804,-0.063042,0.043082,-0.067040,-0.114177,-0.072872,0.047708,0.075088,0.092791,0.068628,-0.080733,0.111572,0.095322,0.004844,-0.096005,-0.072301,-0.074390,0.016108,0.082238,0.042428,-0.048634,-0.099792,0.048483,-0.043648,-0.007085,0.024136,-0.055421,0.032484,-0.014238,0.092023,-0.082162,0.088118,0.089491,-0.089551,0.023501,-0.012803,0.079939,0.104016,-0.056213,-0.051053,-0.072698,0.070701,-0.083759,-0.062258,0.090088,0.082129,0.100196,0.086157,-0.087248,0.003678,-0.056426,0.092499,-0.027042,-0.006696,0.081001,0.032296,-0.065266,-0.087357,-0.027491,0.031912,0.101782,0.074825,0.057863,0.026681,-0.025418,-0.065157,0.111917,0.025992,-0.020199,0.057544,0.059581,0.028536,-0.010092,-0.044230,-0.085618,-0.050237,0.083692,0.108106,-0.034558,0.084359,-0.025835,-0.025269,0.032911,-0.081286,-0.059163,0.000000,
-0.001997,-0.016310,0.050489,-0.023650,-0.085215,-0.069027,0.096561,0.066959,-0.099541,-0.066054,-0.063155,0.101292,0.054411,0.038899,0.064748,0.016939,0.089817,-0.063025,0.070774,0.038394,0.048416,0.081486,-0.019537,-0.031519,-0.027204,-0.075012,0.019584,0.051435,0.018615,-0.003456,0.037832,-0.074244,-0.065747,-0.087292,0.101802,-0.090894,0.040969,0.089982,-0.011969,-0.000783,0.095131,-0.076597,-0.086300,-0.014661,-0.012804,-0.040930,0.023064,0.070974,0.053503,0.029130,0.070624,-0.027020,0.027662,0.047256,0.047825,-0.035877,0.095051,-0.076419,-0.047443,-0.095926,0.033110,-0.056487,0.071163,-0.066958,0.045269,0.092726,0.090987,0.047861,0.036521,0.035816,0.061918,-0.006948,-0.060712,0.104770,-0.075295,0.113086,0.023836,0.045872,0.015975,0.042576,0.057707,-0.075550,0.072344,-0.043102,-0.075905,-0.070605,0.008967,0.077830,-0.094618,0.028654,0.054709,-0.077206,0.063349,-0.031789,0.015623,-0.038031,0.081300,-0.077066,0.052272,-0.037614,0.000000,
0.019993,0.011699,-0.093130,-0.047530,0.004217,0.022577,-0.050590,0.074371,-0.047933,-0.045646,0.043737,-0.024505,0.031243,0.037587,-0.059634,0.028419,0.109636,0.032630,0.040620,0.006797,0.076409,0.094493,0.060144,0.033880,0.050161,0.061218,0.028008,0.017027,-0.038350,-0.003398,0.051228,0.004759,-0.032140,0.024735,-0.033447,0.008461,-0.091531,0.019057,-0.015091,0.085711,-0.074550,-0.102519,-0.024475,0.007430,0.065768,0.027674,0.001250,-0.075896,-0.047225,0.026055,-0.032023,-0.031627,0.051031,0.067344,0.017230,0.074895,0.083017,0.002479,0.099989,0.033028,0.055204,0.061580,-0.092585,0.040742,0.105420,-0.003230,0.006014,-0.016814,-0.078546,0.032371,0.012613,0.038142,0.089118,-0.050584,0.088046,-0.016597,-0.001858,-0.050575,-0.072687,0.021475,-0.082957,0.039370,-0.093492,-0.076315,0.048797,-0.065260,0.092391,-0.066384,-0.057577,0.033360,0.084804,0.045565,0.070892,-0.055110,0.018890,-0.009337,-0.047047,0.021351,0.040562,-0.069178,0.000000,
-0.012266,0.026196,0.096806,-0.080542,0.088270,-0.009680,0.022248,-0.086279,-0.087963,-0.051201,-0.007366,0.019016,0.089433,-0.016547,0.068933,-0.083885,0.055988,-0.086437,-0.094914,0.060014,-0.065276,-0.055271,-0.059055,-0.027611,0.048832,0.050057,-0.075273,0.008061,-0.082695,-0.084906,-0.025543,-0.008586,0.049893,0.043411,0.024944,0.076296,-0.011453,-0.008873,0.096641,0.006848,0.068095,-0.049833,0.064150,0.059750,0.078653,-0.059297,-0.095394,0.017725,-0.012711,0.094643,-0.033416,-0.043817,0.015607,-0.079885,-0.082174,0.064389,0.022846,0.019695,-0.015250,0.055803,-0.037717,0.030345,0.033366,0.025418,-0.068299,-0.092617,-0.047679,-0.085365,-0.086663,-0.034527,-0.010584,0.014761,-0.051603,-0.064342,-0.026423,0.058336,0.052446,0.093087,0.046182,0.071610,0.001617,-0.061631,0.030767,0.087013,-0.035047,-0.003117,-0.088995,0.077178,-0.081223,-0.044609,0.000928,-0.047732,0.000417,-0.054438,0.096920,-0.058077,0.016125,-0.095582,0.014155,0.066354,0.000000,
-0.060071,-0.010996,-0.003800,-0.003635,0.019402,0.102921,-0.029415,0.051481,-0.082167,-0.046546,-0.072072,0.021720,0.017096,0.089568,0.029746,-0.009148,-0.015106,0.029006,-0.084041,-0.009163,-0.013141,-0.045583,0.005596,0.050573,-0.018420,0.001832,-0.074912,-0.034135,-0.099533,0.099321,0.085310,-0.070701,-0.076917,-0.084803,0.044951,0.020934,-0.139436,-0.008752,0.088568,0.007591,-0.087096,0.025139,0.103810,0.091188,0.008740,-0.027487,0.019877,0.094432,0.043172,-0.082946,0.052687,0.089755,-0.060631,-0.065285,0.079230,0.052993,-0.081901,0.027569,0.060388,0.020253,0.077644,0.056230,0.028730,0.058291,-0.009876,-0.048086,-0.024213,-0.010416,0.038557,-0.016759,-0.015862,0.085193,0.039372,0.111623,-0.004633,-0.024846,0.111397,-0.062851,0.050448,0.084562,-0.101355,0.003827,0.100384,-0.041135,-0.081482,-0.058953,-0.094154,-0.019458,0.055314,-0.029324,-0.011985,0.016682,0.023409,0.000742,-0.031683,0.012342,-0.006078,-0.006624,-0.025307,0.026052,0.000000,
-0.040472,-0.002140,-0.015308,0.070444,0.041919,0.062557,-0.000613,-0.046123,0.006695,-0.071212,0.002186,0.092608,-0.014377,0.084446,-0.071254,0.078572,0.068576,-0.027411,-0.118045,-0.068564,0.051290,0.112665,-0.080429,-0.037969,0.035574,-0.024897,-0.059954,-0.033641,0.031859,-0.097281,-0.037156,0.070655,0.047649,-0.042745,0.077845,0.016084,0.035974,0.012834,-0.029221,0.090023,-0.095193,0.022780,-0.044544,-0.031629,0.076338,-0.091147,-0.009192,-0.015429,0.073300,-0.075760,-0.019603,-0.007811,0.103365,0.078465,0.007766,0.040151,0.100215,-0.085901,0.001876,0.091226,0.001653,-0.044795,0.088565,0.094741,0.084537,0.076925,-0.008576,-0.066912,-0.088435,0.062315,-0.041273,0.097778,0.012480,0.073881,0.006446,-0.016671,-0.011884,-0.085384,-0.098362,-0.020474,-0.102449,-0.075424,0.054759,-0.066272,0.000996,-0.032811,-0.075296,-0.030556,-0.064220,0.000571,0.095465,-0.020534,0.041837,0.072012,0.043693,0.008546,-0.034303,-0.017085,-0.013760,0.099836,0.000000,
0.014119,0.065454,0.057017,0.082390,0.017256,0.001730,-0.028922,0.063913,0.074505,0.077714,-0.088787,0.007104,-0.061076,-0.065885,-0.087280,-0.038185,0.089392,0.055991,-0.069120,-0.020709,0.043849,0.058667,0.072418,-0.052599,-0.040355,0.054116,0.021856,-0.051581,-0.075739,-0.005814,0.084973,-0.039595,-0.013895,0.037825,-0.083453,-0.040462,0.014181,-0.045643,0.078205,-0.014161,0.042383,-0.018502,-0.011542,0.091272,-0.079621,-0.069577,-0.037173,0.019015,-0.029353,0.031428,-0.046136,0.037102,-0.093269,0.003788,0.053030,0.017385,-0.044022,-0.037292,0.021776,-0.069010,-0.077658,-0.001294,-0.085331,0.022398,-0.066081,0.055245,0.058333,0.080751,-0.063626,0.004668,0.092811,-0.024997,0.035698,0.054239,0.003453,-0.035077,0.026112,0.027289,-0.077348,-0.036479,-0.084204,-0.084539,0.073583,0.070299,-0.068146,-0.096666,-0.081210,0.047458,0.083316,-0.014981,-0.034457,-0.080506,-0.003668,0.055475,0.048236,-0.040892,-0.040715,0.017885,0.048469,0.081874,0.000000,
0.012256,0.053847,0.081526,-0.002241,-0.022391,0.051808,0.009992,0.087825,0.054103,0.014289,-0.092005,0.052272,-0.034972,-0.027767,0.035156,0.027663,-0.035435,-0.013745,-0.090414,-0.051072,-0.033660,-0.007505,-0.025192,0.046861,-0.005199,-0.062709,0.019311,-0.032951,0.071438,-0.002851,0.086591,0.078388,0.098618,0.010722,0.065117,-0.001199,0.023482,-0.054761,-0.087890,-0.085351,-0.104014,-0.032924,-0.094775,0.077715,-0.083543,0.076378,0.013164,-0.080007,0.085266,0.033212,-0.008034,0.071174,-0.092303,0.063240,-0.017225,0.002878,0.027802,-0.040960,-0.001324,0.072087,0.031605,0.040068,0.085421,-0.064557,-0.026417,0.077700,-0.035550,0.019843,0.039634,-0.098636,-0.009103,0.092399,-0.025564,-0.106249,-0.091079,0.006740,-0.039934,-0.066624,0.072395,-0.056500,-0.081704,0.059827,0.067415,0.021460,0.091182,-0.006860,0.075025,-0.059306,-0.081441,-0.000236,-0.075181,-0.011411,-0.016973,0.007233,-0.024531,-0.007137,-0.090796,-0.050797,0.045926,0.086930,0.000000,
0.086814,0.026716,-0.019371,0.076553,0.004505,0.028209,0.003637,-0.041669,-0.029339,-0.076290,-0.009371,-0.102137,0.015238,-0.013199,0.025198,-0.062392,0.036969,-0.002743,-0.099363,0.048885,-0.089805,0.095530,-0.024756,-0.043090,-0.097099,-0.094862,-0.000301,0.064519,0.019833,-0.073043,0.084349,0.101558,0.041559,0.097893,0.049061,0.014194,0.023556,-0.026566,0.002413,-0.044583,-0.017610,-0.093568,0.069473,-0.039505,0.030805,0.091711,0.042593,0.032851,0.099321,-0.098944,0.092619,-0.048943,0.135672,0.010326,-0.050353,-0.034155,-0.048354,0.059963,0.085907,0.060471,0.108558,0.132651,-0.088133,0.042043,0.042401,0.018772,0.028220,0.009023,0.066543,-0.010565,-0.091692,-0.071674,0.076219,0.017759,-0.081290,0.046434,0.031841,-0.059321,0.088347,0.058077,0.042221,0.017254,-0.051975,-0.120799,0.015601,-0.077986,0.059654,-0.090654,-0.071173,-0.006194,0.029193,-0.005817,0.009332,-0.026873,-0.028924,0.012971,-0.089760,-0.011161,-0.015805,0.002193,0.000000,
0.074323,-0.083832,0.034546,0.037073,0.027759,-0.028657,0.058082,-0.070765,-0.040292,-0.002685,-0.014708,-0.098906,0.053655,0.059082,-0.088788,0.000192,-0.084168,-0.018178,0.011886,0.086979,0.070332,0.051553,0.013169,-0.092274,-0.032259,0.089147,0.008235,-0.022536,-0.034498,0.048280,0.062908,-0.008726,0.029288,0.073641,0.066952,0.051869,0.068286,0.036392,0.027406,-0.098406,-0.019640,-0.029837,0.022421,-0.028686,-0.091227,0.083677,-0.043341,-0.094962,-0.041582,0.020952,-0.033990,-0.099884,0.033273,0.038549,0.093090,-0.098838,-0.018947,-0.038107,-0.034647,0.002161,0.093235,-0.010455,0.085612,0.013846,-0.052088,-0.009622,0.051466,0.059128,-0.033179,-0.012232,-0.083615,-0.063681,-0.026425,0.059591,0.006173,0.052838,-0.083452,0.020462,-0.080814,-0.029245,0.081631,0.004173,-0.074872,-0.098480,-0.030228,-0.039213,-0.092836,0.054722,0.002004,-0.015351,0.077239,-0.094729,0.031923,0.074057,0.021582,0.053624,-0.035491,-0.094161,0.093428,-0.099262,0.000000,
-0.014525,0.106708,-0.047865,-0.019777,-0.051286,0.001814,-0.036010,0.026009,0.097510,-0.066503,0.065466,0.005561,-0.099664,0.080459,-0.032111,0.058839,-0.047314,-0.066957,-0.022296,0.065778,-0.081794,0.049038,0.038228,-0.075136,0.052280,-0.078822,-0.026548,-0.028848,0.066869,-0.084554,-0.031472,-0.034185,-0.008618,0.010132,-0.022995,0.013617,0.102048,-0.070715,0.030327,0.089670,0.076515,0.070113,-0.020665,-0.072393,0.059767,0.015426,0.022457,0.039010,-0.046062,-0.099288,-0.068653,-0.117556,0.031506,0.083288,-0.033766,-0.022391,0.000689,-0.040672,-0.068596,0.031485,-0.067520,-0.096566,0.018746,-0.040154,-0.016839,0.043807,0.032247,0.083566,-0.087886,-0.065663,0.136475,0.004442,0.003530,0.085298,0.087104,0.046120,-0.108105,0.095385,-0.066373,-0.099275,0.101780,-0.065198,-0.079557,0.135824,0.033017,-0.020857,0.035038,0.072807,-0.010600,0.114799,0.081501,0.033530,-0.062126,-0.081047,-0.001437,-0.026674,-0.090063,-0.075603,-0.063475,0.001920,0.000000,
-0.045212,-0.084018,-0.017258,-0.044074,-0.024125,0.060489,0.057992,0.065226,0.099769,0.006901,-0.053171,-0.010440,0.015979,-0.035677,0.079718,0.052531,-0.072531,0.009474,0.009434,0.031026,-0.066674,0.098371,-0.034604,0.037633,-0.049483,0.034010,-0.034669,-0.052890,-0.089452,0.035214,0.013715,0.030871,-0.054908,0.021286,-0.040895,0.027813,0.093365,-0.083793,0.038354,-0.064496,0.030636,-0.021817,0.040818,-0.074634,0.070314,0.056486,-0.068752,-0.070577,0.054644,-0.078484,0.039055,-0.049423,-0.089607,0.031023,-0.042011,-0.065991,0.029762,0.046232,0.080823,0.097788,0.034610,-0.028896,-0.017155,0.075491,-0.077737,0.071841,0.046139,0.038418,0.030939,-0.083028,0.039985,-0.006041,0.001305,-0.046445,0.072283,-0.016703,0.000812,-0.085415,0.076791,-0.092306,0.061895,0.043840,0.015226,-0.096819,-0.046106,-0.006634,-0.074069,-0.032360,-0.022622,-0.031226,0.069574,0.091432,-0.044782,0.051638,0.006279,0.073204,-0.087215,-0.049542,-0.020033,0.096040,0.000000,
0.079147,-0.027063,-0.061642,-0.049917,0.012299,0.022628,-0.050590,0.028177,-0.011562,0.074425,-0.038120,-0.056154,0.015369,0.005159,0.056470,0.097624,-0.040273,0.092991,0.046973,0.085135,0.030812,-0.014951,0.013723,0.002628,-0.073856,-0.033288,0.075740,0.019595,0.026572,0.009678,0.021576,-0.069610,-0.018832,-0.021630,-0.034180,-0.063206,-0.010424,-0.002389,-0.032703,-0.024442,-0.030708,-0.015948,-0.079833,0.081508,-0.053410,0.052086,-0.088021,-0.004573,-0.009231,-0.085048,0.005193,-0.074641,0.035373,0.062578,-0.015463,0.016573,-0.050051,0.036199,-0.094410,0.099608,-0.005633,0.020740,0.084722,-0.082829,-0.052089,0.017938,-0.099779,0.022747,-0.008500,-0.093802,-0.024886,-0.073183,0.009660,0.073690,0.095187,-0.093504,0.035658,-0.076970,0.035544,0.055044,-0.095266,-0.072179,-0.089668,-0.009376,0.036647,-0.073354,-0.006506,-0.034812,0.090723,-0.091685,-0.055504,-0.000937,-0.077930,0.076975,-0.091873,-0.032262,-0.041817,-0.000916,-0.047511,0.071791,0.000000,
-0.086088,-0.052747,-0.045770,-0.095578,-0.099186,0.035285,0.094183,-0.015289,-0.038798,0.043716,0.058925,-0.089746,-0.047745,0.084524,0.044510,-0.092836,0.001870,-0.075726,-0.077353,-0.049668,0.099253,-0.057659,0.068735,-0.090751,-0.006879,0.090435,-0.022454,-0.034465,-0.044210,-0.072275,0.032085,-0.072897,-0.063603,0.086868,0.074412,-0.052288,0.002111,-0.026869,0.076129,-0.089780,-0.089845,0.048948,0.004766,-0.029252,0.051219,0.041070,-0.068029,0.057132,0.058071,-0.014141,-0.086517,0.041989,0.059573,-0.099335,-0.092524,-0.012075,-0.087693,-0.049949,0.078045,0.018289,0.059742,0.023551,0.097779,0.041385,0.029446,0.075703,-0.039717,0.085707,0.009527,0.091540,-0.059618,-0.067929,0.072763,-0.057586,0.019324,0.094734,0.018699,-0.071029,-0.060887,-0.055184,-0.067822,0.053637,0.014498,-0.009011,0.027849,0.058461,0.008820,0.064919,-0.013436,0.038627,0.021378,0.000864,0.072755,0.096536,0.080482,-0.025376,-0.032464,0.082316,-0.045432,0.010726,0.000000,
